{"layers":[{"type":"Input","params":{"shape":[1,30]}},{"type":"Dense","params":{"activation":"relu","units":512},"weights":[0.03171614892907179,-0.22279622904092627,-0.2605746924876698,0.09254199956208004,0.2518449005780635,0.03541845079175337,0.16484265507767126,-0.06006878501485456,-0.14394727255837936,0.031246071075936157,-0.19634290227040235,0.14854663347083116,0.05394144834590195,0.14144595550299557,0.1974223408209056,0.08796848085576461,0.15753833785100516,-0.00415210434784901,0.0038851717762441716,0.08627900504400444,0.07196832289806056,-0.019056749157209427,-0.06680064304231986,0.11619289779990266,0.246171175638486,-0.18526934534699607,0.14692848200812303,-0.206992015542814,-0.1126647084053277,-0.16333245461604878,0.2536829557624655,0.1667139090679277,0.01432344911116738,0.09489767915562913,0.08728415746976755,0.06748639292820202,-0.1519677383791627,0.14385656011919654,0.04551094105564823,-0.1888811959487854,-0.23070216947888653,0.19317642912941596,0.1881802567472734,-0.08636331765971764,-0.02721187293683165,-0.25908389531204523,-0.14636223978606944,0.05824992474505646,0.2334551767073068,-0.2801211138785027,-0.25962270090872847,-0.008264292735275494,-0.15446777526861083,0.13564440121230978,0.14044265195923705,-0.13309309738692016,0.09560772948812035,0.21716516892915227,0.2117662311297287,-0.20805596354622116,0.029276070703410793,-0.007652675124099379,0.048051725994329074,-0.034212595263124035,-0.2199468356757526,0.1608746279697141,0.1774966361345434,0.10012488933311585,0.13097188178655142,-0.06516759150543075,-0.050320926314370885,-0.13205762327324938,-0.20947252593291693,-0.23926152143021873,-0.08050879861825835,-0.19648264646630306,-0.01691167654368542,0.12058693650463198,0.06187911974009268,0.19492367518011092,0.1293364106543805,-0.03189456249068836,-0.13046549691423084,-0.22669577273074612,0.20503412482028924,-0.2191863512324778,-0.27037071541156016,-0.013973483957300055,0.14784252479801538,-0.24773645769761463,-0.10685724302056024,-0.11480640123157704,0.24961366522757575,0.005627834227599564,-0.12616293409777865,0.0989976915089653,0.22073334037160144,-0.1539845984159925,0.15494640197994383,0.0025730098394161635,-0.0892190191750933,0.16648947068839062,-0.09671577079612309,-0.1933543851401285,0.12609911191191303,0.016552172705594892,-0.043306719772055156,-0.26561940974061715,0.04117063872776934,-0.0977335277352114,-0.12950175439261602,0.04857434507611588,0.1304121711884743,0.21804177623859108,-0.18684747940134636,-0.08176166038347621,0.05153819550326335,0.02259189601799828,0.2787339453160718,-0.11465649174849574,-0.1495638384595745,-0.07909426879863792,-0.10236385713762151,-0.19815384833714716,0.037390454686369076,0.25445442593081025,0.1388286226271846,0.06712881550893302,0.06745013512866545,0.07862871386806182,-0.08413323298900191,0.031247819519391998,0.10237779618331973,0.1981482761371796,-0.11237038466610028,-0.08912834710949885,0.05757613837768378,0.15748705316575798,-0.0711573789509272,0.15362453712868923,-0.23271262942418164,-0.06702404895025686,-0.05915295944704334,0.0023754237423186386,0.23084260715483043,0.030649675454883528,-0.2106612100631186,-0.239326342566348,-0.10897298320953522,0.16814314776816106,-0.13038709034363793,-0.203512349608843,-0.0706319289471372,-0.2559072465374648,-0.019212480180414705,-0.11754446248751793,0.17296918584092472,0.0035377120181275283,0.044824144422126046,0.0754226457063221,-0.13607113768224485,0.07389883970903172,-0.18367133153381643,-0.24849179299191881,-0.16531464634593393,0.005841198855264851,0.15336862671570542,-0.0143987897293729,-0.044965880019439096,-0.028763029538708188,0.07383534281172942,0.1546291467243697,0.028313102437547817,-0.1045308239848604,-0.10061918841872547,-0.05257850546189206,0.006060515685002286,0.016663463130530333,-0.08441482781973819,0.1656302950426606,-0.20764370376744626,-0.04863572002746067,-0.17637443178535744,0.07465175917651103,-0.0001683971673748102,0.14210343771160014,0.11308913017286992,-0.20965716876819704,-0.06212639498806548,0.012227197166589765,0.11136119301764724,-0.11991940153716295,-0.210006692109669,0.17778189046939505,0.07051334443690288,-0.004233264655116356,-0.023550574211615615,0.10989881874368132,-0.026897950183789415,0.10962527420898767,-0.15735477884950289,-0.13008898759855336,0.00037308092307562535,0.2134468010758893,-0.10058835614644035,-0.18673887470177786,-0.2617710014222391,0.16717012672393589,0.11081670309452797,0.12162742797413467,-0.2214338072205064,-0.09772870329502024,0.08848637212061845,-0.29212448184905193,0.14815486802709796,-0.07936423439826597,0.08417563774974846,0.02877788136868621,0.1880306076753258,0.18616518033394966,-0.08179931837970898,0.22554702276687896,0.08380015069523807,-0.10130553446275584,-0.021854576691688585,-0.2170355855736832,-0.1677054672020699,0.03341542600076862,-0.15893533959432524,-0.20579193589536388,0.09645084934814219,-0.07039186640211736,0.1944688428505615,0.15398581791291632,0.0017587872456831472,0.1462304468781926,0.029896006446651937,0.1712137853973767,-0.1183616046101407,0.08611103995748164,0.23914680725720083,0.04554844610990053,-0.18219265037691776,0.12891346880732998,-0.10080719073403464,-0.09140486448970561,0.11994418382984591,0.09740751340318402,-0.12565013599796204,-0.055219588202187225,-0.06294241250750632,0.15799415380402465,-0.1508564901414385,0.037420268224837794,0.0015596605668300176,0.2240656443406289,0.014866371516516557,-0.02653559351961618,-0.19502777942793467,0.1537745655316157,0.15761263217461433,0.054635356033448164,-0.13778577688458593,0.16828370385312688,-0.1422000470582446,-0.06672670760802507,0.11560327156488591,-0.24089437733859997,-0.15783304386807426,0.10738506606823767,-0.01385555801684068,-0.15730206663619106,0.01026171513855715,0.22777092652508352,0.03440403610918666,0.017999743991016226,-0.04751438322374857,-0.18645616299889073,-0.14006932190381033,0.030673337274707946,-0.11692615765741622,-0.10219123627898952,-0.07665037070625225,-0.016203992991929417,0.22497245178008662,0.23508055084632645,-0.2719198569925633,-0.23092555467057171,0.15063231786167172,-0.016460546970414863,-0.20269548945876315,-0.19205945098192803,0.17726436751213476,-0.10216353316305082,0.23204904096318957,-0.14310010596484232,0.20920430728624256,-0.2991336498989806,0.17742864292107144,0.15918915056877084,0.021360499812801245,-0.2440283763213782,0.14828130682232615,-0.13418514835838719,-0.20372193487509713,-0.09823959261292961,-0.0995574837204103,-0.08065911370146595,-0.08708984327162432,-0.09276397065558159,-0.14137092335282875,-0.042951938722111296,0.16860083306177062,-0.02273784112165168,0.03326463362742348,0.14735680296432854,-0.10222739520669939,0.09785341928020311,-0.03468417529426772,0.01685603053843199,-0.11656543747230114,-0.18612915554352688,0.02621458199537616,0.038015015373349066,0.02903336545898522,0.080118561852332,0.10906127499721677,0.2243423367802203,-0.11930114755667744,-0.03923983706996484,-0.09158809002719646,0.28050132326542804,-0.22481893236210315,-0.019984470601984796,0.05607791101674482,0.08135985252523902,-0.18532103208764197,0.23244739634748304,-0.17241975037906662,-0.14284844923930307,0.10365999526181399,0.17200347627602727,-0.17802368325339737,-0.061881772773759024,0.05401210464580522,0.12804290184868342,0.012322719555810597,-0.1003650862611952,0.037146147731668674,-0.005709117562451042,0.054700202429313456,-0.03655623325244597,0.17491286562410271,0.056758255758816,-0.1354403807039143,-0.08390722956759743,-0.06221591969642091,0.2118744228364529,-0.05127471149740248,0.08806964975171365,-0.2261573239557418,0.2717485013950151,0.1634801624023485,-0.15562816151852993,-0.022389601248912653,-0.1797483378938727,-0.10017446324039209,0.1655807676617196,-0.08124857494415466,-0.2944991483304265,0.14341052006952065,0.026627293022606524,0.1172453556477546,0.09391292397950272,-0.2191533751628355,0.12100120240366936,-0.006136022534652091,0.09568416246861297,0.10080417636666407,-0.0037508198379617216,0.15633011562292704,0.14093088553612249,-0.08445887720624737,-0.04098238539760845,-0.22347213056730583,-0.0326648176759264,0.05392923794411824,0.06390868477212608,-0.13304114487404567,-0.05556561642947591,0.21688366616845092,0.16254322768895454,-0.08257775214462884,0.1990282627666407,0.04611842788223269,-0.034600561089368306,-0.04620458297034915,-0.041477664574932904,-0.12468235642791049,-0.2158235240404106,-0.1201804661628688,-0.2195118475915037,0.18992172009382444,-0.039680912281072823,-0.020070778841575976,0.18418290064091075,0.08333100945077726,-0.14982787267113673,0.06613383812473893,0.20106173003156688,0.2464822969018706,-0.20453146204963205,-0.2416914151268306,-0.2566551659322555,0.23595256872615655,-0.05749434618119534,-0.09949002939223586,-0.14082238188926768,-0.09224065055558378,0.1962741298751035,0.14200024408235604,-0.18099514511089304,-0.08993668198050886,0.21044119899606425,0.06248787025561219,-0.17456008203290008,0.07404998117428019,-0.159111612746667,0.1670586574290985,-0.19300500248404856,0.018533952858562228,-0.055674095842467956,0.05711562745130045,-0.21428519686433564,-0.07717833043539768,0.17943331735304419,-0.2568825841922784,-0.03345975157317823,-0.15861948535852535,0.045456216214112416,-0.06852720409914943,0.2690986075424375,-0.2527260154960494,-0.23394438095846654,-0.26008225433389703,0.04069895114028751,-0.09707311933310539,0.12485227650552845,-0.2898895990154225,-0.27563550435722284,-0.2440470897439408,0.11288600867938418,0.1222670290825292,-0.1557799514627164,0.26664016833652116,0.038454119781672784,-0.031209235511780342,0.20018914361583398,-0.23680997221787775,-0.13813724373655795,0.096090225559296,-0.046174889162091635,-0.01998399986143326,0.007421905235652884,0.0032448664916435166,0.009506876201602975,-0.10024404463163764,-0.0317129591999297,0.0012494156746210572,0.20169000138847318,-0.09507841395915327,-0.004426655863012044,0.06430247230034676,-0.17385925966975274,-0.2186024247602794,0.05688279360927189,-0.05727970186496909,0.054188989720094775,0.12597334991952874,0.010233945296552326,0.017218278106290313,-0.2550478596374075,-0.24647116489108434,0.1090734670116485,0.1577803477027179,-0.20535207003491662,0.010175934281100295,-0.22375516918699198,-0.20371271044790784,-0.04662363221634188,0.26996225361176995,-0.2834138554101143,-0.1297108822461476,0.1991754427109141,0.14434018921808764,-0.10762064778994881,-0.1584590854825098,-0.15477694718125767,0.19182035284144924,0.07838998621829074,-0.1024700547294099,-0.04696787015040087,-0.05641724060763228,-0.19340029691480667,-0.11040984414797322,0.2237463195409614,-0.14480067425724105,0.10316054077826269,-0.08900200203162027,0.2151550985075529,0.1962002909959592,0.0009005342198000353,0.023451205022040223,0.07802804363923632,0.07454739914946645,0.10878907405353092,-0.06707080032689548,-0.2662043643423695,-0.21731753753321587,0.1457934934339326,0.08344578723877716,0.12014613680561417,-0.19222893080838022,-0.03800273284048301,-0.07199919717128395,0.1625406735452668,-0.1058101773471546,-0.026908669981421784,0.11529653180023827,-0.06890037837922221,0.2337030567907233,0.1876557597172877,0.10903885548182156,0.1483858340992817,0.09676764572729947,-0.12097948637012935,-0.178891256173356,0.038799576148149946,-0.1662684167884255,-0.15568719410521628,0.188699146856289,-0.05049828936874043,0.06723424430025149,-0.24218586418540242,0.14441210744303787,-0.1606298236126661,-0.08361733926206215,0.1979335652330028,-0.18243678543091923,0.16953444866585518,0.18095190848474807,-0.0915922657430101,-0.05070056801286726,0.039177670616578675,0.10107845843474132,0.11292360052455185,0.11104659608665922,0.2087400057458732,-0.15578905650184335,0.12242847887736322,-0.25402318878308106,0.14193474815208487,-0.10046633723983102,-0.21002755140640508,0.22663506507883133,-0.1367062603655484,-0.060472092154832444,-0.10358256805694664,0.17124819686334847,-0.192293410030723,-0.13559572233673028,-0.18709549729953462,-0.12136217917686216,-0.1886572817445214,0.00570265615776653,-0.06814445428100238,0.025293340014792942,0.10246732676604335,0.19075417647011086,0.05851679409996877,-0.01194055396257031,0.15105256311422663,0.07536224056234077,0.21157375474407045,-0.17636638814962555,0.03846569420737064,-0.1698546529232734,0.13508920334072005,-0.16510418152597506,0.11038521328560824,0.14070463300357147,-0.1945434427048624,-0.22682146341790912,-0.2596241101253934,0.20943862331112528,0.28102265331978965,0.22247941059409693,0.13610148799416902,-0.05004619240578201,-0.04533073024866971,-0.1949978912522192,0.125105398637282,-0.18196065940731793,0.22108803017534773,-0.015797019170261356,-0.2488456017030529,0.11636668443493661,-0.2606117876456825,-0.03683708739613794,0.05871364608232887,-0.11186062732758882,-0.09074156845075673,0.004879105951603288,0.16473385657909104,0.08597787358616803,0.10104112892812582,-0.25214930207887293,0.11821405720802775,0.08601704676641425,-0.11179433656994034,0.03694728303844471,-0.00780370453416942,0.13521757193567022,-0.14754782983888234,0.07360636354588358,0.06223826099254843,-0.11555268835243747,0.07481892541649601,-0.20100011100405624,-0.024300390056496514,0.010465002610427529,-0.08160667928339985,0.07932018100322058,0.10439874050436448,-0.23826441293632084,0.18272175787625455,-0.030268793592817582,-0.059505341378475116,-0.18553621403004106,0.18688379414270184,0.027449886619894323,0.08881639018768471,-0.21650736193283623,-0.05018031018614147,0.05644433432049122,0.15674864415855852,-0.012167651946237193,0.07534085506060184,0.0686705485485354,-0.07325423987366614,-0.05329750940923747,-0.1538415924831303,0.08723174881648327,-0.19930290752920482,-0.1795311919120505,-0.2128112441714726,0.04842509389088283,-0.17624249155780847,0.24524881190876474,-0.21542034592540868,-0.12740427054184272,0.19556889555106502,-0.11701118476542716,-0.2220966538348802,0.18495377036744987,0.1881703857406382,-0.17729067132949897,-0.1496022404725394,-0.08219010676378136,-0.16848689881680184,0.1037796607470504,-0.205010839555167,-0.008717751219186198,-0.014248782147045296,-0.17171165667978602,-0.031915126834341966,-0.1532051004112489,-0.2447882130740923,-0.1279057320381476,-0.09081004212690713,-0.14110117397721314,0.010686648159103102,-0.10629976625685074,-0.18006346753802294,-0.2295519460129996,-0.03729462948802056,-0.06692813936484707,0.22296367242205,0.0305321684580772,-0.16724085791056253,0.26519976745872276,0.2174636736580929,0.0904434248703617,0.0847678357512013,0.08510195517002433,0.004534991737087197,-0.13791529788775392,-0.16356856148279164,-0.10695745276471365,0.15523448566568787,-0.016348990503906657,-0.22501595359490295,-0.25176911672203345,0.09327622969725903,0.16534394886672396,-0.19781974901888302,0.06342878644377134,-0.12918041591797966,-0.17257059273670006,0.049122959750480616,-0.15849590871184088,0.24246594131686208,0.18314306252366386,-0.1718175668279382,-0.1232385369025778,-0.006873872732327786,-0.24241792652300925,0.036244032215881974,0.21723113582067943,-0.13163780745912154,0.21438544300994156,0.11871819702324152,-0.18778226199231818,-0.10794339827485533,0.12866020984252324,0.14472990250339637,-0.05455269298915672,0.12678913707237668,-0.1496492587894674,-0.018490196594184338,0.09459199822283543,0.11773433490787494,-0.2526557553121719,0.16765128461851483,-0.05655046936082148,-0.1901914286094304,0.05848191226827734,-0.13651274124978813,0.017629532006527834,-0.0756000845107835,-0.14755807566898083,0.025066478979683837,-0.01798707032767307,-0.020887382927097832,-0.08112525523193212,-0.16596011239398484,0.11056641613033173,-0.012493630638939546,-0.13761576824437027,-0.19051535658626534,-0.23636142888118122,-0.1642361989674174,0.12373112023407071,-0.11748876543917113,-0.08495886469523244,-0.14778945181744918,0.05222680018350975,-0.048123924018642406,0.25408806767436,-0.1510347327133954,-0.0031522769016693298,-0.07021929038694667,-0.04219649896164318,0.11487842097430563,0.19989558158252427,-0.07782031233438677,-0.15120814960966147,0.1328756351826011,-0.23433430975921782,-0.009134618161175247,0.17937777420577208,0.14435807407542398,-0.17148888939781698,0.14721285882057633,0.22845774806558264,0.1253704535207967,-0.1366679094302746,0.10327148224003643,-0.041479309346950925,-0.18682875516935915,0.049900625617865124,0.19155737925130104,0.16788574660282926,0.09235349281730854,0.199048879796153,-0.23267425448371148,0.04685333767454427,-0.011616719775477126,0.0901701644495424,0.13223514868928177,0.03625681363414502,-0.08348378682971261,0.20754163051865593,-0.2448937713648473,-0.21144210596417135,-0.067891087554438,-0.09231242001420677,0.028698233677536506,-0.19730305325680858,0.14526263011051546,-0.04375720534778817,-0.005133610539795939,0.1372929426487856,-0.00804671208147907,0.10465421764393491,-0.09054444858306114,-0.17572644685088096,-0.1438317897381968,-0.23327323859422147,0.14942063813906892,-0.008780451658799733,0.08354612474502862,0.10443960415514163,-0.22716926084892566,0.03274234953620291,-0.19702794444903543,0.01872319104644081,0.07570133044922397,-0.013720654407306661,0.10595521813184354,-0.18358747702931527,0.09551778109293227,0.12757853726049648,0.29515254982123995,0.20508783749379667,0.020538940227311748,0.20737205785726323,0.1846424928449923,0.11675988167312631,-0.004745240568186348,-0.006746203320621376,0.023223286966898998,0.24190323022468607,0.11260997775658352,-0.031048662632769074,0.1040184470314978,-0.08079970267707542,-0.018091271196136655,-0.007686580045092279,-0.19006336437491891,0.12403218605553928,0.23074808207611391,0.1041008827575311,-0.22524559972617056,0.11890675765896776,-0.07313021677749582,0.07891389581693214,0.22465002911843576,0.0034296100808663826,0.07226171130613793,-0.13280492134840477,0.0728893050497045,-0.19269889586001582,-0.2438454451880773,0.16618387291417197,0.07847423316155168,0.0533255256707162,0.08155197040920992,0.07133712883023718,0.09786573269536958,0.14311189837830235,-0.10231793400498511,0.21321512424997363,-0.10862338437528829,0.031731001688398694,0.13825368137469476,-0.1752979640819635,-0.06605182320242291,-0.04573424369083115,-0.07912107628502395,-0.022539016674336332,0.07815098194870493,0.06428296861141213,0.08466166858135558,0.0790398265146768,-0.11665939917104573,0.13755976853495008,0.06876130253277295,0.22680750138430097,0.029408169249772687,0.2649721217962089,0.04269045321426987,0.13017618516703527,0.24099893956311838,-0.03280457058398972,0.17612455932150034,0.10694310903172252,0.165823228983575,0.055076591659998037,0.21668584629416573,0.09952672162432338,0.19144213776674834,-0.11523177951378152,0.2393871681051384,0.04969041759224518,-0.02130742009811494,-0.022108496546824848,-0.14244040199942976,-0.20956285591141885,-0.14731373971915654,0.09121677201710965,0.24968958226209734,-0.2709089225204695,0.19640053719933243,0.0651803763427279,0.06911726549147487,-0.21767916259535056,0.1957363008732418,-0.10118925687405216,0.1369590335415781,-0.017250256509763754,-0.21178619458935577,0.2500900081010265,0.21094919903343104,-0.050715303807129304,0.24768340558874857,0.09082279640127408,0.16783650614452153,-0.15913771379678354,0.18999117716253872,0.08845540430302784,0.18954046420485712,-0.1820215322192255,-0.1852016607084704,0.1574887436523065,0.1534602033403304,-0.036075959222717176,0.08243868173763838,-0.056282553864947765,-0.20184567654848554,-0.15449648084574713,0.22891380027899705,0.06681396863978722,-0.15516940867681722,-0.033910016237094616,0.017264538362331158,0.1727758829457813,-0.18080977998254322,-0.21717723066943054,0.16037828396808373,-0.26118080996611837,-0.030741405934222685,-0.12988554702672128,-0.13065098489038518,0.08657550669764925,0.014606161387594038,-0.15332260770785927,0.11535306718422747,-0.16737721490108215,0.17460699607947336,-0.17805700073334843,0.16209906842964425,0.181657377632806,-0.08609914775878498,0.04667401269735087,0.008327742235955412,-0.04585258718768934,0.12782311007730904,0.02418826171468007,0.14070933245228193,0.06514111118860622,0.01608618005283373,0.03402505574223187,0.055738680993786094,0.06974782202848609,0.09796072112369236,-0.20823911571982995,0.24461822043259948,0.029195595067662672,-0.20743468649497104,0.023799412996793154,0.00854796470092682,-0.07498968515777184,-0.2170807945681905,0.2691763254667883,0.17995782674431562,-0.19749078499976225,0.013389676191981956,-0.26228879963424495,-0.04268466306770643,-0.16884816319113324,-0.1349833822866354,0.20256593667098677,0.067199515794383,0.14127478958592526,0.0396432584671909,0.08231742927173628,0.15589705103541493,0.18478887198414123,-0.2019344191167378,-0.10062424785441865,-0.19232630926559918,-0.20303016560186046,-0.1166515206269951,0.04177890139114094,0.06087091056333762,-0.023423491410802192,-0.130735752975371,0.04884809872077294,-0.135993255933631,0.0219187686680187,-0.12929605191170407,0.05602993792308481,0.13686857832550328,0.14530026011731081,0.1736300359553204,0.1681920600958642,-0.10395590010587785,-0.18817131544618046,0.24729400634479334,0.08114389882107931,-0.08178661900655612,-0.2688218138830976,-0.07021000847210859,-0.2541224780604566,-0.10110994547375858,-0.0926266857037108,0.17130642574199229,-0.016178025265792546,-0.13641107326095672,-0.018330811065760646,-0.12509257088085024,-0.12068511180254124,0.15581752274089442,-0.09581672640442647,-0.2545155449362049,-0.20821382086324902,0.1184522862181574,0.040406018575483274,-0.24947378142276774,0.1524778083553758,0.11104076154555102,0.036371296429057676,0.2302907069747532,-0.08071731420157433,0.22503649969299153,0.20026372284171212,0.05578871206038139,-0.24353377397668075,0.1744769592969255,0.018831163425485714,0.07697382848328464,-0.030485656320144786,-0.10986713755789741,-0.24999547412580955,0.14255192327406413,-0.20738554160824402,0.12573805356630272,-0.06744170956201251,-0.04619015638577972,-0.09343738000086185,0.08979359915105023,0.26213449696137325,0.19146393344296392,0.05765662070666479,0.07835117787037489,-0.06458586687764015,-0.05594166974030135,-0.10694997377751163,-0.2570042414563842,-0.15775213683174233,0.033333156723889,-0.14282548038220721,-0.01495605139709584,0.17677424191297111,-0.23745145772305837,0.02438679283663554,-0.10124102270889573,-0.22607694638860965,0.041389438548778905,0.22219424971456947,-0.08770769390588937,-0.14216664022458558,0.08370837465242162,0.0013288092220706256,-0.023073833596521567,0.23465785565441233,-0.06377313688957327,-0.2140371691465397,0.03125762032770923,-0.1766773274702101,-0.02436145777329521,-0.22727222950471446,0.11552840962374833,-0.25526597431379033,0.16104852317980553,-0.10742976976567929,0.09515050757161869,-0.08051960159761715,0.054305934074583125,-0.1066639360737531,0.011379591816560985,-0.22819078015749047,-0.04190947734836475,-0.09846109507311969,-0.043070309338761235,-0.018779356062588973,-0.02427387481440405,-0.1808570439027107,0.06526572056679752,0.1840658351059462,0.20371148992752336,-0.2460595832395555,0.19523125769649727,0.10876049254540482,0.19174064242906855,0.12270176746258454,-0.08251165088995663,0.008148325968200166,0.1622687138096059,0.16864839027331832,0.07460010095794971,-0.23978017052972372,0.1041061977061156,-0.13235794345484958,-0.1133470936105718,0.14280714991878735,0.21066706429563314,-0.10240987791624169,-0.01046956740163214,-0.2748997234139166,-0.1826931529043115,0.23982871038891096,0.2688382079090352,-0.10978545405647384,-0.07168993608518759,-0.15916699683864743,-0.22429948881580644,0.21972824907366223,0.0972964498773446,-0.13806583768076366,-0.1604448786531976,0.05106110170110369,0.014355012236233916,0.25900741870533966,0.09070572912468745,0.20697453898352494,0.12190737186906067,-0.21625860836991476,0.23606200250224302,-0.09194005814466107,-0.02634562784176586,0.05334774119838648,-0.1736894246617388,0.026607583464996448,0.0909805748926194,0.1646124652023531,0.003348747839986886,-0.2002368938711085,-0.0328586785135269,-0.16782299433682304,0.09447377682876446,-0.17089448936732124,0.0022627570944133884,-0.1701101213329361,0.1698805118309324,0.005164012885783296,-0.05032422278667925,-0.14253917484392897,-0.04623051773301929,-0.19732416665871588,0.072702599275128,0.20981921514944438,0.1434739042509227,-0.11771340853559782,0.17015332611798284,-0.12240852810039306,-0.03738614923514885,-0.0759826344064443,-0.1515806733754209,-0.12540036407157204,0.14287482931614595,0.03722823948126104,0.11366987183588843,-0.15979204684941692,0.07835032665656905,-0.18202027847088428,0.1068445226023369,0.12046774398038242,0.08186875159213086,0.0799073230480582,-0.09988659501981248,0.21473164796610492,-0.21532467165119257,0.06159175922549357,0.21017719703235727,0.01825574765431758,-0.1757808063507943,-0.19760548022649174,-0.23678323397175827,-0.039162725757922574,-0.06007912060114946,-0.26722120874981187,0.15979781789467362,-0.11463505378170422,-0.05622308623060426,-0.13547047114381583,-0.011881673165673571,-0.23118146789720928,-0.18292049852520312,-0.15435709826712626,-0.07418426255116439,-0.09692614122469811,0.20713884779435213,-0.1431905654551551,0.09839510023504713,-0.18018646552618825,0.22893120661590657,-0.06044461401834304,-0.015714272553875138,-0.2434444406774386,-0.22306073483651812,0.17469521833785442,-0.08226967437788134,0.2033056551090422,0.13545602178324828,-0.12641601740275377,-0.21192315400665537,0.15923452154061188,-0.028563207495491086,-0.15237596555066535,0.18655214984012497,-0.11771880697608084,0.08287968893131312,-0.17174529096997765,0.006990684243439238,0.12200088431814878,-0.22291486231591623,0.05716325811084914,0.25002089739090805,0.11471956935413292,0.16342867420631463,-0.12381709540248574,0.058368229855980995,0.012846659528148983,0.006937620047363877,0.034275315684913155,-0.11742926681514958,-0.24611427212591877,-0.026891638658537328,0.025770156887359785,0.07267244267224528,0.0063907948775158725,0.08965307185526752,0.18792504043871766,-0.039920214100483915,0.11166684903125208,-0.014405565573846979,0.09610307168042112,0.10415227910895088,0.2533688194278132,0.09567226482453893,-0.18144970762074436,0.03286028243743001,0.01063715998588247,0.2283284383692045,0.07301338441598043,0.004731718213490832,-0.06065850112825055,-0.17561843921277884,0.1602707892626304,-0.24765104346573516,0.15506864614758523,0.081661534889933,-0.20251596287518533,0.09733907282752421,0.16402041998462835,-0.0839825673002359,0.12885692570298313,0.16759116555650144,0.0516535978432994,0.15096806430783963,-0.03400624797901455,-0.22317702929600555,-0.023522103532726296,-0.1620723573947506,-0.11684064986181977,-0.2366130117722206,0.05087824589833308,0.11082655099592525,0.06011474509084633,-0.10231958076589354,-0.0382262068562183,0.17706809709963983,0.2019484395250264,-0.2640906162141065,-0.23933989921168708,-0.05582727822408687,0.15458117351926334,0.18823626613687272,-0.07912624778841254,0.22779913498172633,0.04489492081534884,-0.06678219796909025,-0.2606631671825507,-0.188744537317895,0.08193772045564168,-0.06053906883966101,-0.20210776706803807,-0.12261429918790623,-0.18156627458518781,0.1647225718089033,0.1938192784847678,0.03613012127356552,-0.01898213540031581,0.013782217331651692,-0.16463200796952263,-0.21664578359691344,0.02011682930826638,-0.013319462051333332,-0.1437155988007418,-0.039994588119173356,0.11066865582544691,-0.026539794268793125,-0.15726307357907293,0.22361838343110862,-0.10038525580081722,-0.12338281970928938,0.06936034235890347,-0.17513089889087738,-0.103815123002064,0.015759421228767452,-0.11018091071924074,-0.24120252702441675,-0.08729118487115707,0.03516427945006121,0.009789502856374081,-0.20777742080990275,0.060552193895674955,0.20170712245682046,0.13086832016228175,0.14658370208287694,0.017435274374539664,0.23548689009763768,-0.02053627220347547,0.12027680914865377,0.16856875950185335,0.11611254971525178,-0.061621534970101755,0.005179161280252559,0.0769426007183299,-0.029834157017188064,0.05868514929875672,-0.004094096645284524,0.002567006978891062,-0.1783190447284564,0.0493805948359587,0.23894915391044302,-0.04536566980020414,-0.2105223516976912,0.08785690870269644,-0.2518760540637542,0.08939375177629369,-0.17485384344377644,0.11707655550461155,0.009731786642537418,-0.09558136671925543,-0.04121498210438385,-0.23994517473680776,-0.233400768332179,-0.2277671352570203,-0.13710919925248288,-0.14099218107750663,-0.16430733987524487,-0.06532706194690503,-0.15563195944337796,-0.1548703322910165,0.1998200883388332,0.17901165659542945,-0.053427535645486995,-0.19352649078360165,0.12966570903316893,-0.08948873067459352,0.0718815393101948,-0.034472719636208696,0.06465779582002344,0.003660439520145911,-0.21064688706328422,0.0037538418050936427,-0.062462924942568734,0.1514565156288437,0.026623877436870527,-0.21347830823394676,0.13699647878846552,0.13302336789219027,-0.03666247795740923,0.16410083845959855,0.057079348803212054,0.1568984863305231,0.03723753562784977,0.048114022248260474,-0.12237939200614548,0.1784421925857282,0.014082991882622131,-0.0583320009524646,0.057268598753390694,0.05492663525237446,-0.09398907562789251,0.09566739491742639,-0.1105323629110185,-0.18378088104152365,-0.09931154862039075,0.1938603674676801,0.1156556343035288,-0.0006630497946468737,-0.0845552301711984,0.057207986974292316,0.18888117681777353,0.10127238594090594,-0.19154587921881697,-0.20411123724803867,0.1338485491930501,-0.1470462227138621,-0.20835002276586298,-0.25303627662492467,-0.13527795600550271,-0.09081302147969325,-0.04597764132571832,0.1012743778456984,0.2394232073040527,0.17364939764846024,-0.11665521857648177,-0.1285930563500076,-0.22050842080970615,0.1819210347897655,-0.032762225615039636,0.11516514043896377,0.12566922931657454,0.10023643962212347,-0.025855601524037708,0.20708315570999747,-0.04086135849388911,0.15497491136232147,0.09540213623068385,0.0869841616161528,0.11738444692629359,-0.2528163219527141,0.14844045603934236,-0.02427581821012609,-0.046684541954477306,0.06812365375983924,0.06280924128335894,0.2200446183714092,0.060627013920927425,-0.26616805477921235,-0.032823886521613506,-0.07270991083573672,0.2433306825725401,0.17085862993547632,-0.005272325085002973,-0.11832945290052443,-0.16226855199463788,-0.2590593340119586,-0.17056219417657364,0.10842798813238043,0.13487971323359452,0.2290766768885694,-0.023396999662240216,-0.17645740459489012,0.08034098927995037,-0.16910781696180766,0.06458345179895049,0.06765909129998375,0.06183037893371365,0.07195075300976146,-0.1268146794410663,-0.024452034353219652,0.14483550373250195,-0.16066137250539436,-0.24965580245052052,-0.14817521095812852,-0.22103817767374873,-0.19056215374485144,-0.15092326904283107,-0.16566274714942172,-0.006186432654816455,0.04596652433612706,-0.1907933684447597,-0.056331058328738054,0.08626884330801242,-0.20435782287681237,-0.24339097285154337,0.18548099267720258,-0.0746948225629408,0.12806115215434166,-0.0033100204460108445,-0.10605581872482117,0.09721882936610352,0.009765042106207489,0.06730720511049884,0.10259486796999881,0.2863209702207691,-0.004087079815431716,-0.12531004373100513,0.12894905880901925,-0.07990354689690178,0.10559641624223681,0.13998012268996352,0.022690297718897405,-0.14345156126083286,-0.09595902677725282,0.25088188983224174,0.026749531347201747,-0.1344986464764381,0.11823323191050393,-0.24545568410272248,0.04660543234837811,-0.022413985348020204,0.1515733348294171,-0.0010760415908704912,-0.0031407844964451382,0.03408094022196963,-0.233841977973137,-0.17473573479412838,-0.21267049133927438,-0.060123013007408264,-0.1425362177982436,-0.16457934864606039,0.22417729895481908,0.1317021704490619,-0.11050830008803109,0.09446607626690912,0.03749756092512294,0.23358614044071224,-0.20744974311246409,0.19364190779335444,0.049695187513670316,-0.06432215078286058,-0.0581347378844547,-0.2157811423740574,-0.011857158838089465,-0.18352053353206127,0.1436683842460395,-0.2237438326016303,0.001672238709655841,-0.20981721394614264,-0.14678776903314317,0.11461199588299995,0.16811274285076783,-0.19010984754333973,0.04627731393410649,-0.16800582624656743,-0.02699643024199574,-0.2803321099815298,0.21868637643635816,-0.015066268594354842,0.22447623399079897,0.16410547284052288,-0.2423980699695696,0.037532849996391476,0.1266387832598131,-0.18133397445397964,-0.1442299560319577,-0.042769539354198985,0.1667727492073174,0.09202129734229951,-0.23578105854498319,0.037669737716201045,0.13625205501532375,0.1441656307962907,-0.25140785422827994,0.05501705141868215,0.1999458680167591,0.07848310120175303,0.19163952399113876,0.17300367282174822,0.1618164133828991,0.01749493738742002,0.04407756931729431,-0.13569103643297517,-0.008127953740215889,0.07202404153914362,-0.06632053022591777,-0.13650014027227741,0.010763399973563577,0.22520908185844835,-0.12625693344063907,-0.19597796937842535,0.17507208568003663,0.1190076349991182,0.24698318438604783,-0.021828255421096118,-0.14946400078919525,0.04716490260086999,-0.021215217869699085,0.12161684583344544,0.17591688777945805,0.19441945215748693,0.11656344043126533,-0.20178172176623074,-0.06767667729041511,0.22278050619704579,0.019877071565987132,-0.24898547919484176,0.22833537619898298,-0.239014451407643,0.13698015839144498,-0.14251993032965937,-0.16830095468057604,-0.1437356623482819,-0.22341555314915923,-0.09552083809247552,-0.23558309574393965,-0.025488821988394247,0.22583006978016523,0.006437906944587129,0.14307254030233615,-0.19314598508706857,0.005574863147417225,-0.057117588480155315,-0.10700696812569051,0.2297735781269919,-0.0573882856796968,0.025075723116372836,0.15023852246481076,0.1888911379378779,-0.2549210839806288,0.1714405850273566,0.1194788857695569,-0.22648896725432305,-0.18462508344113407,0.16171760688334258,0.0752400944405826,-0.2402203045431237,0.12400399398262013,0.03512265040078064,-0.15771928219326198,0.03232773530534936,0.1288604211705475,0.18521646997195212,-0.24295971323681576,0.0850291163046419,-0.12649377155165986,0.19150521739807386,0.17181536390556085,0.00494594188222314,-0.04511157028058694,-0.20172343727346145,0.20550320512338285,-0.11709039110272233,-0.07042699170786018,-0.10114102286603975,0.07790619253765886,-0.12425682822789988,0.09051638960679101,-0.2211936215247027,-0.2151399121435472,0.07777087178303076,0.010171061320019296,-0.1489628631516853,0.1253687084906432,-0.2024234846039861,0.059954633616723776,0.10130331232300868,0.24754031335171725,0.11401281566093968,0.21594904323322145,-0.027886584859962486,0.17004626153977445,-0.09730527888212219,0.013170824271824517,0.24382105951683297,0.11477100649526668,-0.03094003616014319,0.10730401661061285,-0.09671581302087963,-0.21671754864604093,0.03721743803414542,-0.26650793859088534,-0.026000356356062376,0.027907330516470905,-0.11393562797566288,0.1253272089838775,-0.1999289407479731,-0.056278540093670996,-0.001245820557360502,-0.039319325871965946,-0.20938314795961036,0.018468016979121028,-0.06851336611538875,-0.10157375704291621,0.1893236367737772,-0.1523582285578771,-0.11137089927409392,-0.076186994687798,-0.05178584039897144,-0.09729740076793893,0.23031072464594715,-0.2187549558708708,0.13315656751935345,0.10820036682342919,-0.029176302721342418,0.19915710543770254,-0.18008154054447392,-0.24403682935736692,0.004645493853660549,0.16628177894062734,0.042875211824590795,0.19391394193949799,-0.20842321967065583,-0.07766464537440175,-0.019748088020936944,0.210495157826413,0.169420923192725,-0.13650404764760007,-0.11631253908129616,-0.012216050746879096,-0.08184973512735279,-0.25130901817702805,0.20451664159984972,-0.19522749568194486,-0.18062436837300422,-0.125727086304053,0.12155217436969457,-0.23162737773228614,0.1985317946797905,-0.009861527839731026,0.045779109930973505,0.11184302779632219,0.05842067820098061,0.02541408681460345,0.1523484234694934,-0.04619377015402025,-0.2951967322149376,-0.1533582567875651,0.240847751468579,0.00726208347636087,-0.08847932694239963,0.06352988174031193,0.06788489733571923,-0.01931493682539221,-0.21066182520057408,-0.21963987720157085,-0.1973924201584411,0.20961751074795995,-0.06101022795742828,-0.11717831258565395,0.13165788669161005,-0.1232131887106432,0.1752691166117819,0.09175342363232682,-0.004465425251290482,0.18008504190267693,-0.2235929388925951,-0.0026383157507570425,-0.02770586519723979,0.12420631871585014,0.09186001523853869,-0.2335075169398613,0.012464241959168948,-0.12554205205609587,0.04331565899780868,0.18932494829864605,0.12094552982586979,-0.2026396434047765,0.11729261142522163,-0.02854550467696178,0.07208126967853382,0.12656952763865573,-0.05785398453328505,0.21079515322068726,-0.12173803610020288,0.24505813283633776,-0.011047716014244419,-0.24669304646344992,-0.014811644109456418,-0.2308628914665335,-0.005861757381522722,-0.23310334356062667,0.029890235479952953,0.18903994920348394,-0.07932455508352784,-0.040201570736840726,0.10123313290924738,0.19078126431234638,0.19477022643809613,-0.24076924326059498,-0.054059317861643634,0.1299469885285584,-0.07513229687547734,-0.1516529980104929,0.051044973657594035,-0.08623194308102186,0.07417980293148958,-0.24459912034189318,-0.046010754160763265,-0.0650743230875819,0.1104222810082618,-0.04035256240312556,0.007806330236871828,-0.011982494485001594,-0.13518591399598628,-0.11264306143701984,0.23713985644584282,0.05075460804223912,-0.2535269028092417,0.1620215874499726,-0.16297742679052005,0.04199675677904485,0.21118059119449026,0.009076653400703523,-0.07973967622164305,-0.24919791880143138,-0.18771193865363134,-0.19431290894723582,0.010801854199067266,-0.2063962194659179,-0.19099638472712027,-0.016323784267792976,-0.08988763896496262,-0.27345748975550777,0.060032099703272626,-0.10401285850841593,-0.19457589255461957,-0.003766969931277569,-0.21130569765159868,0.2165347961999113,0.2091249596477373,0.16391376476030695,0.19427016206325742,0.23903524308323737,0.23075502598977224,-0.01059563371669499,0.05685033001685408,-0.17427699144795478,0.1303206847467295,0.09490384827112469,0.1180949647488537,0.12407664912633233,-0.1500153263069842,-0.09745868861491798,0.04348585897786874,0.06815777057055519,-0.13788762374953656,0.08337501217838467,-0.06389139119310726,0.22607919897978515,-0.16684803797193792,0.11108805638324748,-0.18985852770820583,0.22920562025527463,-0.23790112788800105,0.2107547161065988,0.03181374808552772,-0.001428703367764605,0.001848767744487267,0.06340607851785124,-0.09015801402014988,-0.19384330477414402,0.14986583090353103,0.1540652286390819,-0.09878345572007366,0.07904306735763982,-0.16739603883256185,0.23007760956755643,-0.1985736904611242,-0.17168795183675198,0.21174579103139057,0.169849121958624,-0.23075929239092807,-0.022274709867305936,0.08474942244287949,0.1337018692947355,0.19466331436693882,-0.1415861678460304,0.14011654904601437,-0.22611693871335925,-0.07262479935616624,0.023420885711341762,-0.09295888872486854,-0.00046338548972706535,0.17550197989590446,-0.0705201941281079,0.0516628292718166,0.15112235149242717,0.09363621235947117,-0.00577906843088757,0.19212994298360056,-0.04594956240241815,-0.054055916836801034,-0.16708734719446738,-0.1471737111989251,-0.06438866249362668,-0.2631800154927564,-0.1147724725688901,-0.16901324680480082,-0.2584742069162407,-0.022309760840559138,-0.08756376795214965,0.02289970724121577,-0.2290540543208941,0.22001601010918354,0.02004380739634935,0.10254484906038255,-0.0001644342139582311,-0.1084723523234123,0.019442755254579173,-0.035810393113416654,-0.03774084536124995,0.08848339843663107,-0.17421324004868755,-0.05011815663633765,-0.037542956126391386,0.13403032702630893,-0.16171180428885798,0.06297114887818724,-0.11623468445035211,-0.22225070091268118,-0.11465167765689244,-0.16201491011740624,-0.08372666780045879,0.10711908565107356,0.06997085168946304,0.21923039015112522,-0.2302868992661983,-0.07886809692302366,-0.11571754936848566,-0.2247645442685648,0.2688843774408087,-0.15285369468836862,0.2677370941699532,-0.21230033972468335,-0.18094311515859288,0.1851555585706677,0.06894221534927819,-0.0007064419683599051,-0.16555353738620732,0.21500084878572565,0.10938230120794508,0.15415848944298838,-0.18408508974659066,0.22959788284531396,0.08096196730110461,-0.25869720556571485,-0.016409734608998906,0.07487782863655218,-0.18276353829125536,0.2767816361997819,-0.28248838970866635,-0.011227147953897688,-0.27527257562965574,-0.16800698719782564,-0.14924260289269642,-0.09582648520179121,0.02603816525386348,0.1412967076142905,-0.1221074613503778,-0.033142723135515466,-0.03321962517382789,-0.12321337761045066,0.05543599732829559,0.19778010736225102,0.14419108781313672,0.18891043048452266,-0.052657619102470604,0.08595169038736623,-0.21777169362158816,0.06749174592716883,0.26642771580535196,-0.25944640675943137,0.10093938430857079,0.13970242070607558,-0.25243963785133094,-0.20532142308723134,-0.22578015971737816,0.20277168587571162,0.08527813421787515,0.17432214766543813,0.17563892750045165,0.07945497407579992,-0.20760911428776457,0.0862731959063985,-0.04507101716080584,0.08739236150261606,-0.06770001597183486,-0.015305995793095514,0.1857963495098337,0.06856787924231912,0.026823671040690375,-0.07834874307131848,0.04424375003936464,-0.06028834052015938,-0.20568241057750808,-0.1652094978134622,0.052583783608331845,0.18817461477225214,0.20350598547395363,0.08124388836867033,-0.011117189251267862,-0.23648882874012317,-0.026659010765800358,0.19086944049125848,0.07928204860682092,0.029824860024462406,-0.22101208196893055,0.1148042877511455,0.11248884566951474,-0.11484507197978165,0.15754890752522746,-0.15786988106692706,0.1560314025654489,-0.202349883808351,0.14059033745788618,0.19718059340424388,0.06395071423772775,-0.024872066853081614,-0.23794893694815367,0.10609572179598696,-0.05031908043222566,0.20577475548911778,-0.11311138531083915,-0.2437583464457091,-0.156191077854811,-0.018541322956758855,0.06576983574836946,-0.208419654831475,-0.20940292991522239,-0.08458534950678062,-0.08508401814905035,0.13183705172626128,0.05001076651256411,-0.16248100174250274,0.1395680775763625,0.16004169968146492,-0.11646675123112099,-0.15193379866614168,0.09885237692583305,0.17884759962804914,0.10735795534530825,-0.08302995025505686,0.2173643502496492,0.1488242162071899,-0.23860511751296318,0.04758165851508717,-0.21094137798174611,-0.11915858724794928,0.23390195384124057,0.16703475701120613,0.12904971755658892,0.07636878337978127,-0.20520720118567365,-0.15193761515402632,0.0717475142397417,-0.1909255248659174,0.005166266674501504,0.16034815247363154,0.1485029287486319,0.1432855086058543,-0.22230153708923622,-0.12509210309835259,-0.14936865161120175,0.14827469442278066,0.0463523923986958,0.2241349019007336,-0.0995732823489805,-0.1633023669250994,-0.2624000314485016,-0.24173444997790003,0.10965276065577577,0.07182661699184298,0.21532518528952518,0.19060573130616976,0.08867313864642548,-0.10891206697731597,0.1442219474988058,0.18083589514966003,-0.1762331130362908,-0.2104692303431987,0.11272145572366159,-0.07138670192270363,0.0426931256685703,0.08490753547415782,-0.2220173311361088,0.1018117195577657,-0.020311696650144692,-0.09391135156019834,-0.10114640275729109,-0.1348838940578226,0.07269906762075772,-0.1928065831865657,-0.20729246455692482,0.0009013640832061243,0.23162785128912863,0.14675533863950407,-0.12583171858665346,0.17733645779468446,-0.16377526232039546,0.22773475074105992,0.046453801318771096,0.003612828646775258,-0.11651824475842551,0.18119840859381223,-0.17317761343674623,0.06944002733348405,0.02950822488180009,0.07823591178120815,-0.005859980101558384,0.029807879460031567,-0.06320285021244502,0.09459488144210015,-0.23313767935054006,-0.05659537960095018,0.24653911162001435,-0.11152024717166618,0.17619668625601342,-0.22839841601829192,0.09009978972937863,0.04974065279124385,-0.0742637664333766,0.22438443393744403,0.025560236190419253,-0.02080660241991783,-0.17739448530662416,-0.1535035578760165,-0.1050612203369046,0.2176570246663111,0.1992116020498878,0.18802676500952717,-0.01808985182000233,-0.08615187649559039,0.09787276120801075,0.08551353228797014,-0.1065279283440841,-0.23694688869036484,-0.024791864854082264,0.18874332351718864,-0.1776434457628433,-0.19217208428374305,-0.1978917786635899,-0.0390780667794479,-0.23799570305178722,0.24532283310721775,-0.252205164062931,0.09333187333384213,0.09373252937066846,0.0721845138845988,0.1409816796128961,0.18623671734700822,-0.05062035487817962,0.14978933420029306,0.016336568334211266,-0.1654967649167435,-0.13870662444275564,0.0014881199104663926,0.10494305870676524,-0.007126568693887357,0.17390053668194996,0.21159791117926327,-0.2064913422647167,-0.19788531937547774,0.12935142710138217,0.1065766363762391,-0.14575440663050304,-0.1938345572295487,0.060544776081307726,0.018110484026708756,-0.19111592283491485,0.22325199261792986,0.09056519050898562,-0.21937459302121542,-0.09249898817110787,0.20433079276055416,0.052441848364959034,0.18338672144601992,0.23087165972292234,-0.11179890467160332,0.05223642798760115,0.04893963859859085,0.1290122632126551,-0.08907985414889064,0.017538538899309005,-0.04349267260484766,0.25718514794881064,0.06325952436615745,0.11187675831010555,0.018233518470930937,-0.06030372976240423,-0.10259773329328521,0.266023841660881,-0.17998901227310765,0.017989836656618713,0.20091711945077464,0.14540248788489313,0.10672113270773124,-0.15356046187609126,-0.2226267744455963,-0.14746166733617988,-0.020388062780389845,0.20537885690766078,-0.1683606843110737,0.18635314859855337,0.24734816617324362,0.023873302608875976,0.08689570694860084,0.20410104961428965,-0.09058593290067524,-0.17770762119600927,-0.22658458633757061,-0.08138768350313164,-0.14284614185451067,-0.20968976723718574,-0.0012736032653385809,0.19564348055383515,-0.23102687518123427,-0.17132109827441316,0.22045462616629233,0.11635098749399266,0.05481011110324835,-0.005532632932751037,-0.07780238357587989,0.2591350740798294,-0.04057668162932708,0.11066048488961458,-0.21360534469833395,-0.04684104469424307,0.040397501553205206,0.0419629632671456,0.10365385886762327,-0.24342091081798198,0.14958791621288064,0.17505640269423678,-0.12672831599912648,-0.16186721470293772,-0.0004819221433752463,0.04141678717959156,-0.280406143758441,-0.13036037742424408,-0.10980104387291315,0.08735968617667518,-0.15884597178990878,-0.19807635069688195,0.053213284228506616,0.0018369210809317932,-0.2543794425901392,-0.13322229900598995,0.03425882204798569,-0.044497083385466527,0.15403921104182283,-0.1646068000159827,0.04070056519761312,-0.15479776903559417,0.20620877424602954,0.08151748224164994,-0.12405140604703806,0.25715635845262963,-0.11206639263384766,-0.015355117922773281,-0.049545767829569244,0.13085757850390956,-0.18385414439568454,0.10645654023237505,0.2343228298634605,-0.21596472525983373,0.06325842859137479,0.07857675210996162,0.1923725615880037,-0.20598237799993135,0.08514294742699546,-0.11803207877397877,0.2333622191835988,0.16103117263433367,-0.04524040689934387,0.18860792748221314,0.07646369401800059,-0.04736826418291601,-0.005617712427804989,0.12429708635036024,-0.17359041968785796,-0.03480748885427136,-0.24674931692761967,0.2530412915057481,-0.19267138461846003,-0.0785669574213003,0.1931270993107128,0.16478355021947627,0.21149730598754116,0.0313426950260832,-0.2163073673845744,-0.10617902433386893,0.034677416665017786,-0.07222780152410765,0.16182364499922336,0.04725219938751853,-0.23410034095546053,0.05717266234204243,0.03201701743676429,0.12369710363348868,0.06424801504070216,-0.24288719491280253,-0.06783164348944092,-0.21449357501127758,0.021382066801915612,-0.08517931960093895,0.1528659702574373,-0.2502698210898466,0.050211084924794744,0.14179229686310746,0.017502665700727022,-0.06414952490560882,-0.1643402513076853,0.11088490584990544,-0.24983322663950736,0.11877395148000895,-0.1405660259779876,-0.01810764336704354,0.12153656239342332,0.10844750897064272,0.05295220209753118,0.2022837506906518,0.15457727862387066,-0.12479010698129164,0.22236326974091236,-0.010664748936127566,-0.00008353471207000045,-0.1731213131045278,-0.21779035467590563,-0.011106941194425448,-0.06378266547881076,-0.026416475194909205,0.19370674573712207,0.015323325663062883,-0.019371058668002674,0.15732437695784374,-0.10250049265473758,-0.25334442031727966,0.12402871666260379,0.06498226666026337,-0.15632182420990373,0.08805176431141047,-0.22412519480876672,-0.19436594588144387,0.009506133191550283,0.23308489722152181,0.049160051304099665,0.06153263219651122,0.11016909721595339,-0.0980568307896209,0.18724069929803144,-0.20854904079445974,0.08514287214431107,0.06996018479743873,0.0036081230093129484,-0.024958782428741874,0.17038591919110807,0.2020782268844521,0.10467657451024234,-0.11288461437043514,-0.10361013850572613,-0.24266730676551768,0.0037668564672785052,0.07326827525774458,0.026986982038659735,0.03650544103290271,0.15304455788998667,0.07717662449264973,-0.03363173225976929,0.2525707661490495,-0.046869190811703466,0.11284879843108012,-0.19683096873428102,-0.21705044484375222,0.01301832162660631,0.03924435549148212,0.2054572339981202,0.22324921126862718,-0.07758896124848103,0.10601071769945802,-0.17696494569478324,-0.10400865560297295,-0.1739506972542939,-0.19319330048466288,-0.1879161162640412,0.10140700169992799,-0.1491917844865255,-0.24457170657437963,0.13443789991296598,-0.12903762161223534,0.01600702436826194,-0.13712197550307176,-0.09162294099363102,0.09138157338372564,0.09225413648614685,0.08715495290810761,-0.024069065228953586,-0.10858036910104396,0.20941817865681805,0.0447413998705964,0.00006222262943031026,0.0072333496826922986,-0.09075202363728524,-0.03350619686896864,-0.25397825525408163,0.07835353590179733,-0.17979819540422623,0.1266764102277123,-0.17099657813217684,0.1937870287953062,-0.10426777346054376,0.13043307928414818,-0.11434189591628688,0.020138224965870536,0.10282637697331089,0.0721710429040275,-0.008454168399632816,-0.042950470315286066,0.21364061736201484,0.19879377835536977,-0.22559515399181318,0.23369270086479077,0.03657331019071799,-0.0713669261508028,0.16411766144279544,0.06598526381170657,0.0036814077593812903,-0.19928228632070716,0.2236780214401409,0.17448942872378279,0.19113999087276962,-0.26615014779325086,-0.08606562249435105,0.22251312415970612,-0.11318642378516122,0.034903113915902007,0.030285718402756616,0.17102484769860107,0.1247737499843931,0.07392084827906333,-0.07562583039726085,0.03141543321068031,-0.20918775316720845,0.05295950548282128,0.0957647213878315,0.13508363844454493,0.0753776212902337,0.21250872818876246,-0.1449617612004113,0.01694616867727126,0.017474999005775198,-0.005646642641833267,-0.24555668764613844,0.08225569795497255,0.05204780530535216,0.22577286091835538,-0.1423073668942172,-0.23597494371101824,0.08145871541060916,0.19608347721414607,0.2007256116230552,-0.002895881508506811,0.08009951503223221,0.17466563957870884,0.11231794708068925,-0.284523701467476,-0.12432637774344828,0.05204034491745152,-0.1673133065119793,-0.03454634001828243,-0.03712901587905983,0.2697022788204632,-0.06503042421255084,-0.20185428200715616,0.018691846926085193,-0.06737782036653113,-0.23370021049809075,-0.18109354572973796,0.19622725087653634,-0.14313220867561158,-0.048213318854223565,0.2161793835381374,-0.2682080043848943,-0.0965108073213284,-0.08029641406362928,0.0934713198924637,0.04869499723800251,-0.20543360445674883,-0.15945425187713988,-0.24480993271283266,-0.026984344189844307,0.04889524479917111,0.05834379351117086,0.03776253699490018,0.2518916094411302,-0.1204037684805821,-0.018638076037451504,0.061096286721909324,0.1091563012304462,-0.21610400948986355,0.05922266271502581,0.12365076905717927,0.2304637434383944,-0.19559623684873872,0.046301557858548226,0.05108046435961917,0.1561991235656578,0.06050976343542019,-0.147206185029617,0.1514120615429475,0.1471917530225989,0.07680452547731653,0.22096717837458058,0.07902319166837996,0.18783785963329291,-0.1537624780248593,-0.11289411546846145,-0.1308834472011688,0.07208162226854159,0.14638786698962894,-0.056448013570850594,-0.14577613608036766,-0.16768106621720558,-0.21456500680554233,-0.02057009090254386,-0.052092379850312676,0.040415143173593696,0.11315888278026345,-0.058585040266784294,-0.17851362889535244,-0.1188769109836864,-0.0054900271093366645,-0.13856394469540398,0.13846483967930934,-0.12671576423645278,0.16705527095069772,-0.07767423518892567,-0.2145306456747112,0.028277922426701418,-0.04376440651545584,0.26373160058027617,0.02241721992052863,0.12911495480737015,-0.19180788012500744,-0.15911744355579072,-0.1958500076329893,-0.09947307803617436,-0.21136926914520332,-0.11679837912659424,0.16799663088964079,-0.11953583578544068,-0.1326176500477981,-0.2584525309848645,-0.03170451875684496,-0.220198972489313,-0.033906324151943376,0.1060238150519861,-0.1182870607286662,0.058944162073479196,-0.05133386255043618,0.02326243728697497,0.10793688312532085,0.026242086962210486,0.08878236403846484,0.04319135894268049,0.11262862668906123,0.14149445406512837,0.15877478133056022,0.006247545564472471,0.18691169025244422,-0.061686592619069454,-0.228507769459191,-0.1478568642845881,0.0020183520459987983,0.11603583549404671,0.19346022377615876,0.11910555375710725,-0.12237539936590056,-0.017698164182018992,0.06363811810588718,0.2127797455082213,-0.03851097995415953,0.10848617273522984,0.05586270021255023,0.044006828628319034,0.18092785916416537,-0.15255946290417965,0.19272226542665483,-0.20044081427668,-0.09520498932335322,0.1312663252937783,0.07959755161939659,0.13319825948173888,-0.27899156043825046,0.04211304206070417,-0.13441561898368404,0.10679518390546025,0.1205033987191092,0.13514086701816072,0.060233938375918464,-0.20232414940839763,0.10950654317512623,-0.10152190400055777,-0.24933394245625823,-0.07418942234884346,0.10246456260577813,-0.12602516792095192,-0.04867264539126341,-0.20038167190204273,-0.01270631040260975,-0.2013369390817864,0.05751152043020201,0.07955845018896282,-0.1845837580259021,-0.14409059028647345,0.08102914461239079,-0.13559485329125154,-0.11824942796429071,0.15929692695453157,-0.12805977527949855,-0.20739710674263048,0.18759973090199142,-0.13404811804217256,0.22478105866071246,-0.061376755625904285,-0.07844396544232964,0.022476934802070275,-0.19859627099893498,0.19780130702738333,-0.34665801512257555,-0.0178193447986503,-0.019751502576135224,-0.13989724939276363,0.10130245581110361,0.05633092736066849,-0.2565576039626227,-0.06388380755727208,-0.17021507537086072,-0.07352797734534049,0.10919077100557757,-0.05734386575328505,0.17548158283409238,0.007966708372537986,-0.09667480756922783,0.016422343012558332,0.22414089760924466,-0.11269178298401207,-0.213727880248554,0.18585372487326562,0.15526187169166997,-0.01996579883412195,-0.10803486013195149,0.06034059321076699,0.19222308102556915,0.09574541820015721,0.2556156347690579,0.1820554246149536,-0.10295916045317387,-0.03350456588064324,-0.18809802722114755,0.03969385969262012,0.15819391271669,-0.03235754193594935,0.11240657925546393,-0.21558829556672385,-0.014986658834300498,-0.15851679556167864,0.08253130559492626,-0.09027143322592855,0.07979047638988397,-0.20216382085411216,-0.10796301858382426,0.21809427695935205,-0.16396890564971156,-0.11195801638707753,-0.12991769771314482,0.21802547434184139,0.09194284617856703,0.05416513498269408,0.10860489454364192,-0.19318763356764837,-0.05138134062343603,0.16942837696099303,-0.21650421981240214,-0.0414784064480129,-0.15731216747525467,0.09847337435427013,-0.11190862716916485,-0.1785151379430946,-0.17561626259884527,0.036960543852048,0.10474922521877243,-0.14297087366300118,-0.19733251444411637,0.0020557697626722594,0.0730732330956575,-0.2472503726210722,0.16278263053385636,0.2521015332303156,-0.09475793641525773,-0.06544458656458757,0.10956815270881906,-0.16630374608658088,-0.15698588308357891,0.20197413779382908,0.15382618447036242,0.20543990668762763,0.14853275868253168,0.12741087074626317,-0.22276693774623046,-0.22865496454043074,0.25680188648553937,0.19957899078385322,-0.11169736840218586,0.06094151604011562,-0.21218283907305488,-0.2508237255069026,-0.05113402766456059,-0.12087675685787569,0.10844226216874951,0.2092787325879742,0.12301180547985964,0.07557132302710337,0.2154878479136092,0.11157272746412755,0.15022034973862855,-0.1721588846604001,-0.10620765918596246,-0.11893287267638356,-0.07214008514081373,0.23841358098647975,-0.2645369780964093,-0.05687819613090624,0.17377906479565855,-0.034454945133425265,0.24252502972845194,0.2606341288783453,0.22763496703209066,-0.15484678101612698,0.11415481358758112,-0.17070902394101622,0.005869330168372218,0.14713246257258092,-0.08617767519244515,-0.06384223596548079,-0.028091833136656155,0.20002725985149825,0.1488882547698484,-0.03607770535389365,0.16060840482779035,0.0923472988794955,-0.0709943304865452,-0.10272792468271488,-0.2304964096291788,0.11605841478747671,-0.129955216168032,-0.24112817556281405,0.17374876862600197,-0.08695030953205674,0.13407249591488943,0.03432617868090055,-0.24818167975393204,0.14978445698305418,-0.05699084650811326,-0.08613691975955448,-0.12735576190433764,-0.20956310926732674,-0.060065064455322476,0.12671888153553493,-0.22369844792079188,-0.057629883608268324,-0.20088169326563682,0.21471941526411964,-0.1606953951104632,-0.24992871127996752,0.10915184819886779,-0.029584874625238823,0.06736107084471851,0.22506609164470356,-0.11730687557637294,0.09895314071992785,0.03502359466916531,-0.30233748572671126,0.2493420392947135,-0.20770493923301694,-0.024522150591766715,-0.06913825972806993,-0.19066185301494792,0.15621532075366862,-0.1597839426706722,-0.22390718120242045,-0.06624838311034864,0.020134605022316076,0.15942599489471626,-0.048859023637185334,0.06765462530310425,0.0748943212550881,-0.11489032902393652,0.226584194584934,0.12527117337151533,-0.20111554064952597,0.09409670801566582,0.004251210938224675,0.03842322445830728,0.07917357002335268,0.2531577399501578,0.2513292376228299,-0.1264706421194482,-0.15304207066357334,-0.24243688588014178,-0.2990050193394644,0.01153303958691398,0.11934700259900025,0.12704064931704268,-0.052456295755568386,0.033345533295752586,0.12965128740677268,-0.2149265207761613,0.22463236868899467,-0.1257246746328387,0.20544222442504415,0.22305749310711226,0.10617542636601637,0.13783370910029497,0.23061720527956867,-0.1665615848087326,0.18693985490885257,-0.09896284730354694,0.011820352105572855,0.1426180562672674,-0.06527050039795747,0.1715701998799051,-0.020876592456000997,-0.12771592887440877,-0.24364015830378635,-0.12255349955016245,0.22474819170665347,-0.013797869418528282,0.14795036789356236,0.18792865108691412,-0.19167824812758982,0.12705332373099462,0.008249374264727452,0.026478079100588844,-0.19365943558290624,0.0357603927428239,0.11196099943943394,-0.23360927765515868,0.16180543761676724,-0.2180844741532834,0.172136742759444,-0.18122671733226134,0.03513065154919709,-0.09755071020133758,0.1607671351459033,-0.2484582078623703,-0.23462410362188424,0.13170804692001917,-0.02592540605765551,-0.12258044713832437,-0.26318457045858906,0.11626960175643636,0.19411072014081443,-0.07078601789319405,0.015586832448780934,-0.0029166137355534105,0.005548244671363871,0.07030040646141071,-0.14839770789726087,0.14288132103127463,0.067416008053354,-0.07657699636165453,0.23604154232447977,0.109703925347699,-0.10044563411081306,-0.17837172734152967,0.17335387640281208,-0.1143379083970578,-0.16040686475251198,0.04219500616549347,-0.0039771090547566276,0.15405694362313566,-0.14013769884857893,0.08540323320494732,-0.20161980256443285,0.09911639199638997,0.1353047754862414,-0.09163574306798447,-0.026984761894106032,-0.05733504916162693,0.18165578761757428,0.12823366507628878,0.17940424501198837,-0.14538088469874333,0.2368613255373662,0.008047720856881975,-0.23560792369499567,-0.21178537710191514,0.004347211725971453,0.06682109469667515,0.03343651208086257,0.18180848596966329,-0.17743582266555322,0.16035946408102827,-0.00019856367424156987,-0.05525519941149535,0.21955349394656198,0.0187492310887019,0.09179976776672256,-0.12873035513866998,0.018041053444449145,0.04365904664857639,0.20286829531854209,-0.11225064260760306,-0.028191497802330965,-0.002817952803186098,0.14360915816015093,-0.044602790047027524,0.14851546553992703,0.19098154077328577,0.1410789457378082,-0.19969410864931816,-0.14211780589966563,0.10991928613251192,0.08158874715116847,0.265138065227215,-0.21539882483651335,0.10577556908140733,-0.15499719882740304,0.16399442651864438,0.010768266588712182,-0.09208448493960159,-0.19672743602493048,-0.04651614215898147,-0.08448319909874735,-0.03778962524164834,0.24149901380243233,-0.16624360696833163,-0.18629837986512682,-0.04147985769377754,-0.25619000272829395,0.04635303675501715,0.22282704290269376,-0.009014759341653885,0.16060828091843002,0.06364246199500838,-0.04868184095836954,0.050245619477998174,-0.2036028903749694,-0.01825475397626427,-0.1582933771050537,0.047725365417972544,-0.22683831298240917,0.12236237841503413,-0.15715998839937187,0.10253492497541732,-0.03677899142450582,-0.1945051452000656,0.12852894910763046,-0.025097368979537186,0.212148988905063,0.2159541224710376,0.12689686027491995,-0.062211752678595855,-0.22357906785378645,-0.19762307742305277,-0.2722396323735981,0.21511468427349625,-0.014692320569710727,0.13599640436271107,0.0932569669304067,-0.1927571314369342,-0.11226332798338534,-0.16935419898577045,-0.06170980296423052,0.17213345817983045,-0.09719273971600746,0.12930630964185832,0.07495420518940359,-0.1978649275214426,0.24369827791380694,-0.03665565148272398,0.21830135940006662,-0.01884175959625431,0.0736442676812388,0.03083392971912136,0.18322322814484437,0.056789247065165666,0.15314396112606318,0.033195548379129095,0.18395497723158086,-0.07368820716279476,-0.19164122536980807,-0.2166991906940949,0.08849309049985167,-0.09239633035864384,-0.23920389262445949,-0.05844916845397897,-0.10472706113147937,0.14156812437765073,0.07318423414372004,0.08068613689235964,-0.23443602869692118,0.2364163530071344,0.14917382220250566,0.21427198445022816,-0.10917975200205811,-0.12515306549235497,-0.03051133612200053,-0.09083024670586073,-0.16760620115414013,-0.15120295590779956,-0.2588772392355126,-0.15752431667375955,-0.1753021250180527,0.03372266178527218,0.16716410164866435,0.041132607338264154,0.14847170248928335,0.20931232276312817,-0.2125518128094041,0.14118733552562968,0.08124751599707046,0.005805837122216277,-0.07424620096889632,0.2206766573683739,-0.023975262163104975,0.12362345613183957,-0.050196343066096334,-0.21122984354990115,0.0683937588916334,0.13874369422670177,-0.025366962760191868,0.04701523681832207,-0.10553067440332536,-0.19133415400761764,0.14941053229823584,-0.09657238384856212,0.036697664876846774,0.10995127551964307,-0.07602025248193789,-0.13991218217286178,0.10313597041909899,-0.09613229192910519,-0.1377121335839501,0.11316870494664684,-0.19051089779146116,-0.0866864162384006,-0.2315642711921036,-0.17261556605738387,0.2027270050602779,0.037292852730587196,0.18256650891464696,-0.04477560830183151,0.08509937609296636,0.11142540255606526,-0.06288172058943885,0.0767063671937682,-0.15360547981971923,-0.0061739131313545675,-0.07708918393165529,0.09133045737618348,0.2292315546687902,0.1562750542606918,0.1479906916915867,0.1830859080790067,0.15592339147804746,-0.013457683545774729,0.08841335125720275,-0.2503942470022345,0.2292963057116246,-0.10693949040181477,-0.23736016651714648,-0.19565042522347637,-0.1028315606073112,0.07766038300638382,-0.007770689398783649,0.25444266082919414,-0.20949495807267884,-0.16080554731157734,0.09089653287668219,0.000913272211426306,0.200561270832462,-0.08981442320072049,0.11412599556936898,0.12047396509312881,-0.034940594131459404,-0.24646604347615772,-0.09958089547835337,-0.018610798969633975,-0.15234438209404233,0.1590550288574883,0.08130124749124341,-0.060463741948968315,-0.09011969736681827,0.06779002116186948,-0.10812349367020127,0.1092677301604125,0.18852576809546234,-0.07692625957773506,-0.07630462162591568,-0.1123273203459309,-0.2878985848138986,0.1959408490252447,0.18880349610403446,0.017592007131404186,-0.026821622358188912,0.07232550306156686,0.1634017188270526,-0.024296751877422335,-0.1910381476506264,0.23930782002329062,0.13555548724755023,-0.21032030956561487,0.0921950677170495,-0.23281063201353794,-0.10671269196054854,0.1417266745286777,0.027809119525193104,-0.10327447771334866,0.036088876770623536,0.017512746121616463,-0.23856060974515184,-0.00029738274845682793,-0.17150573030171787,0.17552205970171092,0.12481617012228706,0.26664389138721617,0.2155858625107061,0.025077956567331833,0.1442742870849322,-0.2953412113280022,-0.13776237300401478,-0.25597732103132803,0.11259336164731382,-0.13395495675517213,-0.28437177832364435,-0.15448020595451392,-0.15463330112676454,0.17694792501742282,-0.19650590921930017,0.14946408856728735,-0.05898791819241739,0.14448090531429178,-0.07605777942994853,0.1997717621456363,0.1205918893981775,-0.2575360344162836,-0.18052085860738265,-0.15393218560336636,0.25541885806489334,0.03331011105424979,-0.1666065003010902,0.2053837432828818,-0.11656077843651332,0.17758648851730927,0.15228012920060266,0.2248072030679322,-0.24731776865423236,0.2228904245084466,0.17027522764529013,-0.2531686517611858,-0.25119026781446724,-0.19186249528248783,0.23346791470972747,-0.031873415024758066,-0.18776624477891535,-0.07737687181023142,-0.0897273439070657,-0.17166717739860102,0.163965713983501,0.02829332452956045,-0.1396854578405373,-0.13775677914475803,0.20002235355780057,-0.1885470590986968,-0.24643594665161864,-0.2061945098531348,0.14554618879212744,-0.034994705075408174,-0.21047347640121328,0.16895772373618395,-0.00499971174144611,-0.20966884119365922,0.08969593061158292,-0.07527082744886561,-0.06314057432637103,-0.2755951274357949,-0.1927534966312006,0.1856558375763421,-0.12719987138670316,0.18484236731810327,0.06407122221434196,0.12318372714349884,0.17964371646916313,-0.16135132204719968,-0.08354019267097566,-0.2004909834348298,0.06411510993689701,0.3022558911593346,0.06778168856252052,-0.25572556200121327,0.14037683824222763,-0.1787797727209192,-0.1545586660611062,-0.00048062868074438874,-0.16859427551715084,-0.22017191783566648,0.13388823616661882,-0.2610150732017291,-0.16540004264647087,-0.056332802229986684,-0.1572505682884416,-0.18035678847576744,-0.2050810659585326,0.035342937491537475,-0.04159560623598042,0.0557357802127646,-0.012344536567547394,0.08406442232935596,-0.12912391709496457,0.15580483756176736,0.0018830312291350589,-0.2461203205305418,0.2046147431336064,0.10150927607486386,-0.23716588080331194,0.0015593517945900297,0.08335453535584386,-0.002555378750133316,-0.0812067911300751,-0.09673146616511384,0.1093134531041118,0.2791387497834763,0.1750508019366868,0.15611801345570342,-0.21974296850294717,-0.20870235727238426,0.01751684180849446,-0.19237137456866504,-0.23065924868875187,-0.1488776037748852,-0.24870272961893972,-0.04885993674224449,-0.19131871859369712,-0.012531037085220312,-0.06508108862626004,-0.13009278287627732,-0.06296963668142505,0.0789000828836706,-0.1496264034996093,-0.10199787537070781,0.07507746852760262,-0.13234314715785928,-0.20795019329968747,0.10041270236114902,0.16185560209185906,0.12691258774923936,0.24752057589900717,0.15752099915581907,-0.19290822275593508,-0.20402755127603017,-0.2045085374927785,-0.06443181531296144,0.12558692527586024,-0.02660776239415061,-0.08092834338502433,0.06522468033568894,0.1485971862835939,0.24122052983895126,0.14850137088396326,-0.10233174572988435,0.17631811245981888,0.1394036977155833,-0.2054349946441883,-0.03206167460591139,0.051721444702581595,-0.1962075800512106,-0.22555243425848095,-0.1739496086830685,0.13546729556915257,0.23858282361441835,0.0084022057601896,0.2570138514234294,-0.07043144983323528,-0.17531933498818694,-0.11895602806072064,-0.08222042697004524,0.052364143147495636,-0.21047849500606333,-0.22151449608547824,0.0023060618002556346,0.2675911878724699,-0.02364441736854414,-0.005709718584187967,0.026566568069904112,-0.04383295071647331,0.09541330848819793,0.06356309061869055,0.2236886640129567,-0.17093161625032421,-0.006525293660557707,-0.2721428143724282,-0.15004473738834972,0.050380233139093185,-0.014872556088316426,-0.1070490797504726,-0.04359652055513125,0.026282235088318562,-0.12982202022617528,-0.08149442044614047,-0.222698761765724,0.006373003845559287,-0.005616121123742921,0.10444889472368792,0.2967431453524748,0.0037315260464971553,0.1739497290095332,-0.1219094127349872,0.24014928115091708,0.04676572928330286,-0.18792470838443479,0.12315340090621589,-0.005774282326291397,0.16724463277505167,-0.17878698070314814,0.1330425174985012,0.07580497189561294,0.06115630024751339,-0.1321091271260537,0.1687903642001015,0.21218107284930382,-0.04335179752177905,0.20059542175086634,0.28963730246058284,-0.1613660357678794,0.29456748315400066,0.23321601544492399,0.05464311345995426,-0.22567181422974075,-0.25540207784053204,0.047403436450438166,-0.060831179554887205,0.00034926238505632263,-0.045723224042041447,-0.013823973559131982,0.15445539778062586,0.1863358804798745,-0.20590855111075104,0.22642818171707454,0.0903586588029871,-0.17190911361703934,0.10526862703765749,0.18871651074615892,0.16798555381743852,0.06800874096286844,0.21742233505721503,-0.020804266530735454,-0.018780198512469665,0.02017066421297197,0.1771691059838908,-0.21921496541058555,-0.1744906065021469,-0.16299209344265103,-0.20647028265924147,0.18780115526341937,-0.2282145267737537,-0.22803458235673707,-0.22526364907057725,-0.10000605397319642,0.20447860578287283,-0.0879474077676009,-0.3264599489598913,0.0597119178925581,0.11636856496686977,-0.1933310273007872,-0.25873449998712145,0.07095036857096915,-0.20714717435097543,0.15511924023322013,-0.23092584991718784,0.03381414074872423,0.12094178527677803,-0.24483695391106716,0.21628059127111643,-0.12108537628282565,0.0684341451294101,0.23653015961440937,0.014178066509663245,0.20741770498367018,0.18650788395815607,0.02251581146312144,0.02783382307383738,-0.15526723347963056,-0.14246128882275322,-0.020115816329061655,-0.06649108097922068,0.14073910085887645,0.031265164984298925,0.2203451231899727,-0.16012448379965874,-0.2584212420608044,-0.09974107280286766,-0.1718061327779342,-0.05162147658608533,-0.11502876718430188,-0.04004993082258865,0.11099335687838838,-0.2259842974150382,0.1174525251292403,0.09253277094699887,-0.2655878536869126,0.27585077411893943,-0.21552977873400353,0.23297527787641256,0.08897085709610769,0.14558679141578562,-0.21298101318617718,0.2227779735923244,0.15914782648945683,0.23707194825294664,-0.21458142344577666,-0.23103523661278946,0.06057222807387279,-0.018453100386853594,0.11543373225464426,0.2596351087386017,-0.2660657417678556,0.2025907245077721,0.11401735229015827,-0.22367835673105183,0.07599217619594226,-0.014659877396452518,0.10919797575062831,0.18924404334416706,-0.2809012080395943,0.15567628770510436,-0.24455747296960068,0.2537601696764408,0.15068643275235574,-0.09626551049644536,0.12508727507877881,-0.15260272799426117,-0.21136644684384354,0.2422370356265457,0.025938760242222303,0.04870633947164681,-0.19094251022198774,0.084554804563288,-0.23179604928866826,0.17146973324666123,-0.050892109395459545,-0.1810616391002736,-0.19659842310111492,0.02994698532451979,-0.2936460602370662,-0.119377575660136,-0.06024258042690364,-0.29420996725672066,0.2166550307334001,-0.017423176670693055,0.13326410084674561,0.06582678149013359,-0.3241255348459502,-0.24907287355878582,0.08449688924183023,0.017579972592814963,-0.013288026950991867,-0.2810250072602908,0.19791375524456978,-0.19248479370475113,0.00579877230572533,-0.2065474610846628,-0.15529617139840263,-0.16745171215265497,0.15649766040333773,-0.2057893162520633,-0.26099930912637986,-0.20356862410750642,-0.11283403833048561,-0.11078843223453141,0.25909662775557113,-0.1255591424053347,0.07855232115773365,0.05278651033633619,0.22940011255459392,0.13782667485991126,0.0833470043142371,-0.12052263622553606,-0.24044368182502404,0.2668165829003488,-0.14520617193173774,0.006101511732037657,-0.07640341326954274,-0.15661070885629513,0.10026701207589077,0.02432597001067337,0.02789923072620899,0.16006253834978626,0.28694380949860004,0.16682260563570958,0.18543477027938993,-0.14510296122270397,0.24247049694182513,0.2152005782042415,0.08612159023332994,0.1659249382712573,-0.06882761474122488,-0.12827101514226494,-0.15883072086640532,0.23527437895311623,0.1695235922361991,-0.09713635550965485,0.23328331108796668,0.10898753238873105,0.0638191165695665,-0.11714778528923353,-0.016287205187140382,-0.10684955476146363,0.22688098864222905,-0.1663047824674853,-0.14899377803674993,0.18331544015868065,0.0320175800987221,0.24470218129668803,0.2401676276803746,0.0697329366315673,-0.12534633226535105,-0.044048026984073896,0.0499757481232217,0.08451636642521287,-0.2292803146009516,0.1236706262084524,0.08332281147810827,-0.2763296311604552,-0.11581385494154485,0.21461761616113978,0.11428557001256483,-0.06158212586400961,-0.11780387583545912,0.24590483733631968,-0.23663730066189462,-0.06841038609048744,-0.09078942996650365,0.24872267663835868,0.028625970537802126,0.0361223948865239,0.0012908716732047713,0.20290315764103015,0.16447550564691293,0.193531809946775,-0.1088455923558916,-0.06442712044319363,0.10614788328831293,-0.2224074037669514,0.17682009877730273,-0.053696854386074175,-0.022961647051945033,0.15845157605209373,-0.2964734929869351,0.19860379763641775,-0.15448736459545775,0.2806754861127814,0.1680421379845023,-0.260272075851723,-0.0305913268769463,0.0905759128749026,0.16174759129314797,-0.05253395600468124,0.11048897801484256,0.2150921708925409,0.23461472083146656,0.1281374994006468,0.18199430810489378,-0.0230564041893467,-0.2678059768358479,0.1719702347593382,-0.14831503792371598,-0.04440632836400486,0.14432758443231278,-0.06119754462515286,-0.10109093888302602,-0.0842962220867003,-0.19477562699937861,-0.04573255936880688,0.1519744087251501,-0.12680212877012798,-0.15255938184770396,0.10203074182912517,-0.1661170158880641,0.027164931347041985,-0.006860419711903262,-0.3124393336524566,-0.05697928279264513,-0.06320175854333593,-0.03499499399588081,0.08771878487489028,0.10269083154566615,0.06279005800098324,-0.026726775167183043,0.04716459454452696,0.03859374950929423,0.05152957689314851,-0.08505483611711727,-0.23849579246760705,-0.23595903007819874,0.23550393607098957,-0.06954083435255887,-0.2684828057834067,-0.1809237588437588,0.16061351569792154,-0.22592732369115548,0.022243148402957012,0.17726130014183814,0.05466000720940437,0.13424200736903144,0.07306597696291543,0.05450483878984383,0.06292943291195621,0.24668232673765716,-0.1842835760651877,-0.22955093147158218,0.11192590737279708,-0.10873396848029342,-0.022520596025279505,0.15966412702520033,-0.14748274016439772,-0.20428433839610993,0.16167270781506737,-0.031714897947369224,-0.25170405643714666,0.09695823466951209,0.11216310609514775,-0.10032476137198859,0.0858942543461867,0.29437379296795335,-0.22136991294206604,0.07672420533266704,-0.28075369028766844,0.16715199404739478,0.06647288677990401,0.14785496318838473,-0.1752641515862762,0.023853627115525362,-0.07311172624493614,-0.250511607790063,-0.21227499126576296,-0.030803418822885783,-0.03813752133924512,-0.06252981482225965,-0.07798975187981318,-0.03303999921283651,-0.04509836885071857,-0.1476740031379392,-0.24027841381429052,-0.050086549004916756,0.20114663759946752,0.06555223382931322,0.1101000199279673,-0.11440309303484882,0.0988724008943363,0.04071281860130094,0.22454449578250682,-0.017967802222395697,-0.10987627871347319,0.23865354128997487,-0.04834498010774927,-0.033626594401313936,0.04443435792990081,0.2162172970384125,0.20358462625140308,0.306863954237235,-0.2387722489907414,-0.11694217649881121,-0.08801194872278732,0.032002515074516485,-0.024973238445493047,-0.2433385644847769,0.07298058466892575,0.2012453267666317,-0.23038157458453537,0.2358546780291845,0.22613729082572692,0.03798183886141307,0.11924457948018885,-0.05390450259028435,0.11113191187881016,-0.08070399386469054,-0.17894924455251096,-0.21941404557610722,-0.10022298255227854,-0.025032822194841705,-0.15126141266041068,0.1545446209014746,0.07421997577507694,-0.1229735688383322,-0.1481706079784902,0.18219719317501315,0.18420938485793964,0.2286085817512968,0.02880080049322247,-0.155552974106633,0.2379879278751375,0.22684532836178375,-0.1160297775154961,0.23311188335474375,-0.16656539876655352,-0.07805238333151701,-0.12372326868513436,-0.25263028160678586,-0.02624225413563348,0.18889501137421455,-0.21376641437950075,-0.018652988381630726,-0.13036393682407732,-0.2630780231894458,0.14985212677638188,0.161641634651658,-0.2928579739037627,0.08710345314004944,-0.10437752618436154,0.04305877247289999,-0.23309413416135713,0.04398805583108132,0.163026430660696,0.11187100654694372,-0.27558541689169447,-0.11727263563755236,0.1436934647751546,0.05184924561203098,-0.07736804021263027,0.1565649520409702,-0.18979349663357176,-0.08271490458259022,-0.1616513858322075,-0.09685088430928084,0.22001338382302124,-0.2602999215186735,-0.042731661272325416,0.16027473545344095,0.21540962441300726,-0.12377250632248026,0.14812331077139745,0.27975686333232397,0.27218541457291967,0.07122655167710674,-0.2577160756870166,-0.006709277505253171,-0.24557218456210947,0.2276261289592724,0.11177804198175556,-0.2096708005176564,0.20393495506238274,0.19022897339161413,0.09604220397843614,0.15047046687437343,-0.03452580550626439,-0.05749546435029749,0.14986600693714228,-0.07425288645701057,-0.20255618384393162,0.18341725338858703,0.21241256364240407,-0.09165472479810857,-0.07892121056886367,0.06044700237969788,-0.03323256132403294,-0.09342895900742375,0.2210459178299827,0.18056368736529962,0.2800385614835848,0.21743629183461233,0.0010924277781386223,-0.12338522214748679,0.12097717887776581,0.20715297743951952,0.24627191704509213,-0.14833716554204396,-0.2321724523700796,0.030550609637972022,0.2373897192770682,0.061700723183728455,0.24649174357153525,0.13164700458741296,-0.018292375365180285,-0.22523371993360813,0.1859103212461294,-0.12295062015282929,-0.2619695810881762,0.12530023629184,0.003109361446694504,-0.1387059926369292,-0.22614821783099137,-0.22935287628327589,-0.2750338295366244,0.050008796230858354,0.17775879345944126,0.23507961152786377,-0.15107413487464014,-0.060584218482832825,-0.23814125672283948,0.19908717127636272,0.07740138901444872,0.20932116552294508,0.241569665566303,-0.002139708176659938,0.1896963227009121,0.19023715035669161,-0.0769471946422498,0.0338004286789048,0.10573035996656394,0.16137623675292467,-0.048143487930742974,-0.07290037859409695,-0.14171582424166074,0.03778855257790459,-0.0709302348776081,-0.20634173454614085,0.06770312225957562,-0.10949199287499102,0.18346982071884277,-0.3162488710350189,-0.10345874981996513,-0.14426644820443862,0.030841704532698903,-0.07903320144527394,-0.19782606412969833,0.23505549124128053,-0.09203924357938649,-0.15916439272245936,-0.16826124872880432,0.11522661225775167,0.1244723238148126,0.11434679899436417,-0.23153926530966554,0.22272412557652957,-0.16563308026618878,0.12278442325746489,0.2313895604675348,-0.1441105333744699,0.14987925714437575,0.21426111780033757,0.17245941761454223,-0.22791618442723557,-0.019516724669506474,0.07006579135573021,0.2806769193304382,-0.10198095230720894,0.20176408450039118,-0.14178217715677396,-0.2389833675785527,0.20686845420602015,-0.009947802663601344,0.2422636542805669,-0.10061748703804228,-0.12427071638755399,-0.1035676200793055,0.0795274916003657,0.08447189688415548,0.07463985813413858,-0.09930886766724088,-0.11163716794882779,-0.020650436496276254,-0.010278369736851773,-0.16492837567659524,-0.19317671420125665,-0.08334099434791452,0.09994922032707823,0.1811817758369641,0.26773377492487216,-0.10501199344328838,-0.2714319648033825,0.024019958322809416,-0.1484937950751336,-0.14839794393055034,-0.14560412862106262,0.02883609465710557,0.21938110574423852,-0.00482171990996072,0.03716176079079946,-0.05246703929049875,-0.1316119011426806,-0.11023446644665397,-0.02609738855701592,-0.14417649883557437,-0.012843289594461682,0.21912999939856445,0.15412016395467715,-0.20853389909903397,-0.3235597185089249,0.05149355737224835,0.16922951623864763,0.1071233106664648,-0.17898567470204213,0.21694631410665283,-0.2713419321907729,0.256564951171349,-0.13629661767093398,0.21625138734278362,-0.11297069963483931,-0.17858314390081348,-0.2293229826377498,-0.25235744733357685,-0.21380836151627322,-0.2526745627501956,0.06288184962694209,-0.27102775768100124,-0.0854107095373023,0.11110671228220052,-0.1541316963371736,0.26699114525795564,0.081216834245501,0.16395234771112616,0.15054290733476186,-0.016471765569976395,0.00628573988432866,-0.24091704546676007,0.12693668888026238,-0.05822170195873245,0.01240563882564732,-0.24483337914317402,-0.2167209600883152,-0.21859750387329177,-0.06638943880474359,0.11767503360663388,-0.18503572965861909,-0.11863057407848362,-0.1479426250598302,-0.21854426856339007,0.18949373539643058,0.15850592430210445,-0.16939534958228322,0.11413496028841845,-0.15810987901650014,-0.052905805258790656,-0.054974674382861057,0.020394237752256468,-0.06945710948670879,0.03600489645806269,-0.27279343232793457,-0.14646308359655283,0.18643779288301843,0.18560545551408364,-0.038667494118891005,-0.029463220466223055,0.09815104550037065,0.23681818495549153,-0.01998021909436424,-0.07047646388790325,0.1965926749659444,0.20384581625343276,-0.045645730054163704,-0.18154564096481524,0.0905502039539525,0.14734110876642906,-0.2008775173953757,-0.03219551432066626,0.0016887399511627873,-0.0564672724737341,-0.04294194700505409,0.07335817428077256,-0.11598725222672703,0.2205021047386984,0.07163738417061592,-0.09869379658223662,0.10913865517253328,0.06422461547488628,0.2220665657235715,-0.10583017985595294,-0.16549262721831964,-0.2964809806694054,0.14463397180673923,-0.17097986605559007,0.022946293201028308,-0.2795818616211451,-0.18002404158938798,-0.060314975913687244,0.020363075597402084,-0.13237160873767664,-0.07567134252079982,-0.3312806116651515,-0.13885360800481986,0.06206312140470301,-0.07365117960322336,0.01296834129129572,-0.14117273603259464,0.013074129715317035,0.22183391508164596,0.03275634852860384,0.04748272404588546,-0.05678433880095196,-0.24123781142657214,-0.2707198492680144,-0.16757932607562778,-0.22192053713351284,0.011852435356024631,0.0311505834496405,-0.005971881444847627,0.26475810896042873,0.1847406946997118,0.09358945270713405,0.16961837838131946,0.2618875822017409,-0.07006721453882522,-0.11707502641631082,0.10594397709273196,0.25130716566688505,-0.041922097902822426,0.175321403224779,-0.13910676992370702,-0.030725166139794986,0.1105516245516898,0.14742001813746985,0.13103368746664978,0.07734020847579244,-0.14076509845302893,0.017670153033684615,0.12242638470810736,0.17550010788863152,-0.12944045615553668,0.0016198753101580622,0.13636602196861614,-0.1441258505542658,-0.18733545624272016,-0.10830303441489564,0.1982637297643562,-0.2958666825748643,-0.2744150065924904,-0.1757416022469855,-0.22773941804192133,0.24461310677405315,0.07599932089962824,0.01658010335113616,0.05631291471456763,0.04087530070853388,0.22151202254103416,0.07963015426522276,0.15968706666369953,-0.18859992643112483,0.06824895275026813,-0.12065412168771723,0.24981574457655537,-0.2714558200163454,-0.07289278737111234,-0.09057475746701121,0.07706443966050426,0.10215810383860426,-0.12533632623190025,0.14889565111445283,0.1274000018584133,0.20780031686246453,0.1825622627099405,-0.0446888006568012,-0.2249983445877807,-0.0067184137064012425,0.06516996727136855,0.036636002805242984,-0.1893473400199545,-0.005269770238892916,0.04643872433774508,-0.18419003113094862,0.08359551376475699,-0.15468948004137145,-0.04613372010955313,-0.07647692214697616,-0.1975663953060754,0.19704985943254663,-0.17205956763864996,-0.32405016016415117,-0.16708467352854414,-0.013078324401553761,-0.2367715341816355,0.02777553586652372,0.16590035124354682,-0.14519511855108685,-0.1594588422702507,-0.2002599913865922,0.2154525346870116,0.189324790930233,0.044538684624375956,0.18150480612202405,-0.05348210230648174,0.0118496098677347,-0.028045811937036237,-0.0828640438203153,0.07803795481332762,0.10814461399523745,-0.10698386946632231,-0.047052960197431076,0.14682072811443567,0.2158117423601995,-0.12882978910210577,0.1558262943178062,-0.256679793887711,-0.11915107440283543,0.23719586895922437,0.021697885241387438,-0.05509920094137115,0.15183589398776204,-0.0997017035839967,-0.25064014409933516,-0.07359833017633512,0.1616171571883484,-0.0670441645498734,0.19279504710642398,-0.0025269219558719832,-0.05151171308218883,-0.08108049053789848,0.06094780880935088,-0.13092009729285028,-0.022595629787813973,0.24289190556704873,-0.18510997728500747,0.058969856115703045,0.04807281480749906,-0.12796529108144408,0.16395325191133772,0.11854821458751989,0.20988888831482336,0.006687885369915876,0.045251885082595616,-0.1752802670904803,0.06053931735033293,-0.1766205628525517,-0.12423200048197147,-0.040934585643287974,-0.06989677674930031,0.02589832998006471,0.17670945048419398,0.064001591765201,-0.2855299894271683,-0.13048261493619867,0.09646832418147823,0.18113478257329457,0.10982096792401166,0.12701878828225552,-0.1280671290799356,-0.03023150493032816,-0.17064634790304434,-0.040737675300891736,-0.019594999262236016,0.05564294788511356,-0.2146009657522277,-0.2251383052927793,-0.04344029090900192,0.21008902023645326,-0.04178179970723416,-0.17458933666207785,-0.197951204418969,-0.19968910718675495,0.22155646484454805,0.14842026085686444,-0.08104735395661367,0.23366876637228842,-0.19708656004118186,0.05508501238221837,-0.0906007694514622,0.04089360015002429,-0.006801255043575654,0.03895065153963912,-0.0038174742501512473,-0.10118876631470673,0.04610563395576686,-0.02083659637431529,0.04074338448147827,0.023378926751622977,-0.050800479311638225,-0.1375345865132719,0.04906490642036254,0.10306695527750272,0.16281262480943562,0.22127515447428484,-0.20209782429357154,-0.2120867132480964,-0.13902563117386693,0.006242618652201931,-0.14893091249658316,-0.07241540599533008,-0.19500965934900907,-0.2131793470638157,-0.006760263384164073,-0.17680599321936408,0.09397633953109281,-0.10963996681724293,-0.09227833996673418,0.14385715066264237,0.036727062736598655,0.15986049538027652,-0.011616845476860246,0.025722159857495916,-0.16879767833060136,0.031793467749326176,0.07522748212510852,-0.03826850184815554,0.17757168396154988,-0.2563180439173311,0.003689502543615707,0.12694315087923977,0.18568961457897779,0.2739882800135895,-0.2336173287387867,0.07314545059116684,0.07575644863037537,0.16720063539812388,0.22159767115449036,0.05861641460335433,-0.21971712183463313,0.05180734611269502,-0.1647071623594017,0.22115992497251227,0.17193613067394622,0.2610858791712172,0.07475856461511458,0.15365010419757377,-0.18126333861712235,0.15192082352626873,0.17003448155263695,-0.2304323686743826,-0.30012181034047336,0.06761181941168785,0.027271212582185938,-0.21741450024236214,-0.15640932409310018,-0.0010764457197581024,-0.13209384753460263,-0.03822353585943251,-0.03076172572906388,0.012249856357276094,-0.051070037798775614,-0.0562878305829975,-0.19590340691504554,0.020660665620262204,-0.15436942666882908,-0.2156836632492072,-0.2284845950714745,-0.20730428147589797,-0.17115703540425017,-0.16329262934609512,-0.24525954187449064,0.08451429967634358,0.17141105067224296,-0.2536593123790276,-0.14084013988966346,0.12531038851011642,0.2073629307788206,-0.02910335405046354,0.04772764363145444,-0.22404695199907518,0.012588751055756908,-0.10796638002667815,-0.1877878011073236,-0.20801904250974615,0.001957844491160987,0.17390643221407429,0.22490283410628484,-0.09225760249549383,0.10014036349555837,-0.070341723938673,-0.10192009495135011,-0.16839357729610305,0.2199190174690829,0.16920986450720443,-0.04254606990429671,0.04526604560832072,-0.03706245449043288,-0.16480829069172404,-0.2617177746344616,0.07865406284803043,-0.21513401451705877,0.1891517542451331,-0.17077503825218465,0.1631530993577589,0.24467087036472138,0.17879284631547682,-0.20404743550571627,-0.21866138542429808,0.09654382102268973,0.15235209308514536,0.17849012060709266,-0.1371622544594057,0.16580084909701348,0.06219525521446649,0.025489593451992164,0.1412984948235058,-0.047323352496622006,0.08550454998955226,0.015134512987981302,-0.19955751699490387,0.1880008679718821,-0.02021252015162934,-0.20449703768053384,0.0765285050484512,0.08992205752004495,0.19908096650731882,-0.11846391133328649,0.15587168993786735,-0.15374021777870445,0.13154675387336892,0.1742650848105956,0.1543584564347164,0.14892110063544753,-0.17673620508881233,-0.09158640511856371,-0.18830995916053686,0.13485116838793215,0.078649564996916,-0.17078231220792142,-0.0397070215891414,-0.13949581584295223,0.0349183511284466,0.00321324580007859,-0.25120200534531306,-0.17132431857630018,0.09578304287311253,0.14634763730745534,0.09610200442593564,0.1637179809676595,0.19786505473212465,0.0334632707623919,0.24271827646804747,-0.003580677709187313,-0.08176662817847022,0.16331698273453663,-0.1346370552291963,-0.18721487276181636,-0.24509153585051202,0.09013578830908672,-0.11281310671941161,0.20069610878744037,-0.07672208290589273,0.11828638205326683,-0.1610650575558952,0.13976141279866477,0.15280790248922993,-0.19915363815472428,0.12055744208091161,0.02646603920947411,-0.2125956614882922,-0.1029264718318103,0.0894350508335232,0.07893005862250388,-0.2436418345482085,-0.17089791365440715,-0.021996984631189404,-0.22623922653961426,0.17549695671805896,0.21219110741314015,0.21926746557909557,-0.2612307221075686,0.03404729702162277,-0.023104605848939735,-0.1656374335843359,0.04779848008562386,0.2498519998767368,-0.1792935835237523,-0.17444051688988127,-0.13327688792883452,-0.06300895310257211,-0.22113988923582387,-0.17989770921281423,0.017217777818605055,-0.05215793339700693,0.02273802797533947,-0.04563107371198742,0.0033184364062641154,0.12521684841326122,-0.13924784003175344,0.06756130344422173,-0.23076957862474887,0.008465726635514516,0.07902773472445662,0.19389515471361798,-0.19320469568680992,-0.062124875486429074,0.07889995472249549,-0.10006001841275149,-0.2158619195592806,0.24981722148837354,0.002520510986491019,-0.04344231883694176,0.13526015593256144,0.13752556190363305,0.18073595476416707,0.09936973206051182,-0.049719168613946756,-0.1503756482472403,0.14889367174906434,0.2543631483939961,-0.2138959920863098,0.0884613268885938,-0.2502593641482812,-0.0558787816460278,-0.05112160930481621,-0.1600773832324199,-0.06383275107401432,0.010241184037148006,0.04529657119139286,-0.06241324765441162,-0.21848145701393348,-0.07355167806688441,0.10249623287227036,0.04252211465740293,-0.09887188553176705,-0.12889761435882446,-0.13637941756693264,-0.19692726206034952,0.011211753968796928,0.06963176135079563,0.019369711222794187,0.12723614510912945,0.09751124397124444,-0.2367049701369087,-0.060722160866404806,-0.10309546054586353,-0.06700970278233291,0.18257977822497565,0.14981155594100018,0.052645099021724984,-0.09707823379785646,0.06548523121598734,-0.14416382527592297,0.1449743023686196,-0.24830164233214871,0.049845946033172626,-0.18209810888770633,-0.13292874855260045,0.14201180736964242,-0.0471778668080521,0.20895188788155733,-0.2414053787951095,0.009996936619735143,-0.18153490372026235,0.13593596973573333,-0.03419149349489275,-0.08387424430046438,-0.22133144965165955,-0.18205513473706114,0.1959636044170639,0.1509435468968333,-0.08661693066374081,0.09459511166349255,-0.043291318154477565,-0.0447706597039215,-0.09680464483131963,0.11298564853926199,0.29079745342719665,-0.024273570986697416,-0.1531427783515493,0.06666942774646956,0.17361125580822848,-0.06043945681002294,0.0643798945702096,0.07499847444470008,-0.14719646935450206,0.14284632776638442,0.172852631963806,0.16647730351322954,0.032903691177279475,0.048869910438874016,-0.031443711678173454,0.11821969063295075,-0.032223599123162076,0.0257172194269631,0.22425560948994275,0.039296712421786215,0.2378706662504986,-0.03520354231420747,-0.21103476533394733,0.00803961344995282,-0.13623263745819741,-0.2230493920390862,0.17574858868197119,-0.07808750690693542,0.040817752782557115,-0.03118124537795606,0.21324927556539117,-0.04089221809253393,0.02045109050832702,0.18120238377551726,0.013405468786690767,-0.04901062002063838,-0.1966845650087692,0.18076274277487772,-0.1180093346531791,0.03452079349500003,0.271892009112254,0.008109297333897762,0.03865110664716174,0.17162149586871056,-0.1316226841422798,0.09200987623094424,0.11504174910289776,-0.16552341115689495,-0.22467270382197022,-0.047370987957375044,0.07421836176847091,0.0708615821795724,-0.21385862464528546,0.14612034637718413,-0.22005517909681252,-0.12211227634153499,0.12791650612525393,0.035397009294037836,-0.17530125572000368,0.19296399982576765,0.10456020549868279,0.03326085187490637,0.09900002149687986,-0.1143025940466253,-0.22017990485632546,0.05682427600635486,0.0277826870338493,-0.18864623516860202,0.18198217008108042,-0.07143106710708244,0.009362864466895437,0.09531232523005517,-0.1322956702331007,-0.12481306601458207,0.01772765265604938,0.017178916151762362,0.15174861308814672,0.13252125601136194,-0.23092812620372163,-0.06833554667060489,0.07622897957674989,0.1297527477783176,-0.1681160686459278,-0.26100695673140906,-0.0021796542883936853,0.24456375212015216,0.2435225251276218,-0.13204301005007632,0.1709811217980766,0.07008174240964699,-0.23159487858625322,0.18072058162177373,-0.149222066487739,0.17591085662937586,-0.2267501546491268,0.0908094548381237,0.11427980121431412,-0.21631429731294619,0.10599554465729605,-0.04434832026828854,0.06462763355182162,-0.2629035303355593,0.1487179033780272,-0.06615144652366425,-0.22008633634077693,-0.09340595927452804,-0.19012591543975058,-0.09181770432746963,-0.26477546959371584,-0.2262131026997173,0.23613668632841847,0.1872618966617373,0.086189423120576,0.12090034821353278,0.1487002009399056,-0.24781483029976065,-0.16612428961331352,0.06177535506595592,-0.12330055244448206,-0.08534074572959603,-0.0639186013097208,-0.24018091953317536,0.1167428369334113,0.04357313772092766,-0.07448116261275187,0.16467598626274485,0.1401423404470961,-0.1887643523714014,-0.17041464602760104,-0.049662662446770464,0.039119370019118874,0.17355644804833295,-0.16135168307090897,-0.1503973613350334,0.18276766221930915,0.1936209727809533,0.15733993102416713,-0.21122833087378384,0.03839083564543808,-0.17596250105339353,0.2701192868260365,0.0979894030653047,-0.013542533391602482,0.017968997949567578,-0.12143139524956291,0.2068584448190401,-0.15719729289600368,0.06988892914589451,0.04856233775819313,-0.10661356744624839,-0.07626552211583691,0.15946067491326235,0.14663261210632833,-0.16570041582236766,0.04219838518801252,0.10301617169144485,-0.02224190383735096,0.0835095655781485,-0.06698781805052823,-0.06692309839239122,-0.23189460509767607,0.09852243644620216,-0.27448512508717854,-0.19682292205364776,0.26850391081120617,-0.11771086276836663,0.24956013086827608,-0.021628942459663156,0.17708366946609003,0.21852178966873692,-0.14656994571177911,-0.03750480347817219,0.10820109966270837,-0.0919202053003957,0.1407193723469658,0.0013330697410570108,0.20935387955244103,-0.14132259975930805,0.07090664206666045,-0.12858560608709854,-0.22239656345635112,-0.1929758697864255,0.07218407471640473,0.049162451499363775,-0.15648715766418003,-0.17938019247845982,-0.15801762742317713,0.12154407836218552,0.15035960012579888,-0.2652709128811273,0.1720766980723633,0.04480083657726464,0.12171405210101471,0.014691597118106093,0.17682095931006556,-0.12064245453011108,0.07261190042394453,0.1529068450476953,0.08856800412446011,-0.13358661994868762,-0.19773290124330495,0.21674756685965346,-0.07384476538840612,0.10798974123521897,0.22625711721195374,-0.008223265625784903,-0.1062317036984285,-0.18888420413667817,0.19831591102037238,0.24337774499139297,0.15939695022079112,-0.004823747830737981,0.1014807851847978,-0.06056483660999842,0.06128094075409132,-0.12506317450556795,-0.055825068275187746,-0.03043946426491156,-0.06525890069716976,0.11075469566535692,-0.13683824286175392,-0.012353220074730989,-0.06632637882749537,-0.07155195466764161,0.09118637552122717,-0.1450074327820529,0.13646832194016564,0.23219941065497107,-0.2107027497003565,-0.12810846567027645,0.23189913964254474,-0.20504713036569835,0.09556064563918967,-0.20955652597159502,-0.26653253616287437,-0.07658084066050425,0.19595650922089822,-0.06898419966385098,0.06901015958755705,-0.22279280091460257,-0.2384884247921055,-0.17953878014663294,-0.11653526778470231,0.012754180255127055,-0.2727555075851024,-0.2237602663615929,-0.12936663791988323,-0.24036210053567586,-0.05100746851897559,0.13942139774470338,0.10568939165932456,-0.17394319013068077,-0.00628388249850526,-0.017987306220453435,0.1572172771633542,0.055819616240120565,0.21046427798377054,-0.2082799363954911,-0.13093186726555714,-0.15841429464312717,0.10639474779049568,0.10361510742490501,-0.1346210593391688,0.11792242568119125,0.2403620020206426,-0.16365207471886767,-0.15265091748688883,0.15307788922498627,-0.1157289210483894,-0.19532441574642512,-0.19945917403210683,0.22815557209346884,-0.05252275557168729,-0.07583574784777403,0.24401764618429023,0.06396143865166114,0.10024039670718181,0.14705358418604758,-0.14215459427529809,-0.00441348124690879,0.19092849226945763,0.07343477199760114,0.1234028845011322,0.145419497370586,-0.27910214338872,-0.22717167964297683,0.2396594365686705,-0.18937747034318383,0.29240006211364955,-0.05483602315193779,-0.09355268573552457,0.2612421999264808,0.10387800117953933,-0.03908690968849542,0.26352027991524846,-0.004754150193325035,0.11890287455099818,0.0776625731334057,0.14854253038666151,0.09422662736189176,0.20118206554198037,-0.11766331057271547,-0.13524620881451782,0.22883387515715817,0.0833754219697939,-0.013734934897620038,-0.18949805254550645,0.045232834341723205,0.14229209874430584,-0.0056324943274507775,-0.0490493032550522,0.16917322540923993,0.2159067501958443,0.21595518654061086,-0.027288335041510348,0.10479686227756836,0.029405824021093506,-0.07257331898456987,-0.09339533966306365,-0.17872636969864605,0.009915802990081088,-0.048122225819279524,-0.09501102109748273,0.2091537727688501,-0.21885750542554167,0.029186176703129545,0.14473118006524313,0.21909874437425156,0.013810468515362719,0.21453405100680112,-0.09639188029761912,-0.04478644589663597,0.06258268900573848,-0.07690340752052711,0.16328850130096087,0.022148408585774756,-0.2740294367901995,0.06301866629334277,0.21992439758585897,-0.09186271145421036,0.11538572855428768,0.08503114261345734,0.12242482426514315,0.22482080449275002,0.1733678499612188,0.009631086084395135,0.03550808904124353,-0.11759431865512138,0.08652207622495424,-0.051150911876596865,-0.17619035040852857,0.04771743841136347,-0.09476964659976056,0.19170456242727213,0.21186755778842878,-0.005612556306914614,0.21256488978770804,0.004527080018190899,0.20410456927028822,-0.18188751124478594,-0.12135621367254332,0.19307561854769417,0.053801659253872605,0.07445029924184142,0.10028914430319004,-0.2118036587991785,-0.15858717035309008,-0.07465386158642118,0.14380742915617134,0.1154863772144771,0.16448177498808045,0.1685057878817719,0.19358803742854377,-0.04240664961773018,0.05978554470330939,-0.17858985686199938,-0.2530835156155632,-0.2086630582307562,0.07778299250069842,-0.15127937551408868,0.06391513649897843,0.061466281715090894,0.20283928054277348,-0.21802865323938095,0.0032775628408773616,0.16774557932865605,-0.11901536845832303,0.11971984552620385,-0.16331445337456554,0.09727142546105816,0.06627971756839107,0.055261994457397594,-0.24640715011889666,0.17755888348322627,-0.26748032052279763,-0.2190428967181387,0.15116204440543074,0.014960540854601426,0.1285532184798066,-0.18331591922492924,0.09961292520608979,0.07189630645771998,-0.19039087904471774,0.14560237240576057,0.2363870866183145,0.2865204520871925,-0.04311632725287955,-0.2641065675958612,-0.24614110956210927,-0.07150830256322135,-0.19388616922300697,0.03772710002648327,-0.1758120744462346,0.06867601510178957,0.09710925472042685,0.14032900106530138,-0.0035062352406108146,-0.21030661109001164,-0.19113192172566174,-0.01354148793650675,0.11981081852956497,-0.2305064646156457,0.16083259510570852,-0.12545179021780237,-0.10725613538361843,0.15708800643205081,-0.2004182205127395,-0.15362918555187136,0.18493808835303255,-0.023292151006410133,-0.038556035355217726,-0.026646989346955276,-0.2001293065731215,0.26213639847678377,0.07016390909381313,-0.09260823454528751,-0.2781701613376697,-0.13938362760473152,-0.20557753306933188,-0.049634779011177535,0.12991927703506442,0.04581847003820154,-0.02002110872651762,-0.14174346792466602,-0.11193852816851724,-0.20597854887480632,0.14800783527206987,0.11304723987182569,-0.15249413542463303,0.19708186659546678,0.05953958261276506,-0.1469342082065121,0.25333408422273773,-0.16599421858929306,0.21361332412645254,